%YAML:1.0
my_svm: !!opencv-ml-svm
   svm_type: C_SVC
   kernel: { type:LINEAR }
   C: 10.
   term_criteria: { epsilon:1.1920928955078125e-07, iterations:2147483647 }
   var_all: 80
   var_count: 80
   class_count: 10
   class_labels: !!opencv-matrix
      rows: 1
      cols: 10
      dt: i
      data: [ 0, 1, 2, 3, 4, 5, 6, 7, 8, 9 ]
   sv_total: 217
   support_vectors:
      - [ 20., 20., 12., 2., 3., 3., 8., 3., 14., 13., 16., 8., 20., 11.,
          20., 8., 20., 20., 14., 20., 0., 0., 12., 12., 12., 3., 9.,
          11., 14., 14., 18., 10., 0., 11., 0., 8., 0., 0., 14., 0., 20.,
          20., 3., 4., 3., 20., 4., 20., 6., 6., 7., 3., 2., 9., 8., 20.,
          10., 20., 10., 20., 0., 0., 3., 7., 4., 0., 4., 0., 15., 6.,
          11., 13., 4., 9., 18., 0., 10., 0., 10., 0. ]
      - [ 7., 6., 3., 20., 13., 6., 3., 15., 16., 16., 8., 5., 8., 2.,
          3., 1., 20., 15., 8., 16., 14., 7., 8., 0., 14., 17., 13., 16.,
          16., 19., 18., 16., 8., 6., 13., 15., 0., 15., 9., 16., 20.,
          15., 13., 2., 14., 11., 1., 0., 0., 10., 20., 5., 20., 0., 0.,
          5., 7., 5., 10., 9., 0., 15., 13., 14., 14., 11., 13., 15.,
          18., 18., 0., 15., 0., 14., 4., 17., 19., 5., 10., 9. ]
      - [ 0., 3., 0., 3., 0., 4., 2., 4., 0., 3., 16., 0., 2., 3., 15.,
          1., 3., 0., 3., 12., 19., 18., 14., 16., 14., 17., 14., 17.,
          14., 11., 16., 11., 10., 17., 15., 7., 15., 0., 16., 12., 0.,
          2., 6., 1., 1., 13., 20., 0., 8., 18., 1., 3., 19., 0., 0., 3.,
          1., 1., 1., 0., 17., 15., 12., 18., 13., 13., 0., 15., 18.,
          18., 13., 11., 19., 8., 8., 16., 18., 13., 1., 0. ]
      - [ 1., 7., 10., 7., 0., 3., 5., 3., 5., 4., 10., 3., 0., 7., 1.,
          3., 9., 7., 1., 3., 10., 16., 14., 16., 10., 8., 18., 12., 18.,
          8., 19., 12., 10., 11., 14., 12., 10., 8., 10., 16., 4., 0.,
          18., 5., 9., 6., 20., 1., 5., 0., 0., 13., 1., 20., 2., 20.,
          1., 20., 6., 10., 12., 18., 18., 19., 9., 12., 0., 17., 19.,
          16., 18., 13., 15., 0., 14., 0., 19., 0., 8., 10. ]
      - [ 19., 20., 0., 3., 0., 3., 0., 3., 15., 11., 15., 11., 20., 19.,
          4., 7., 3., 0., 3., 8., 19., 0., 7., 12., 8., 19., 15., 19.,
          16., 19., 16., 12., 0., 19., 4., 7., 4., 8., 12., 16., 2., 6.,
          20., 3., 3., 20., 20., 2., 4., 20., 20., 5., 3., 20., 20., 6.,
          8., 20., 20., 0., 17., 6., 0., 18., 18., 0., 0., 17., 19., 0.,
          0., 18., 18., 0., 0., 19., 19., 0., 0., 13. ]
      - [ 0., 3., 7., 4., 0., 3., 6., 10., 7., 20., 6., 15., 7., 4., 20.,
          20., 20., 20., 12., 16., 13., 4., 7., 15., 7., 15., 13., 10.,
          7., 0., 6., 16., 12., 10., 0., 0., 0., 0., 12., 16., 0., 20.,
          20., 1., 1., 20., 6., 2., 20., 13., 7., 20., 0., 0., 20., 3.,
          11., 20., 20., 20., 4., 0., 0., 5., 13., 0., 10., 12., 0., 13.,
          13., 0., 18., 6., 0., 11., 19., 0., 0., 0. ]
      - [ 0., 3., 0., 3., 0., 3., 9., 3., 7., 3., 8., 8., 20., 0., 14.,
          6., 20., 11., 8., 20., 12., 15., 14., 16., 18., 15., 9., 16.,
          18., 10., 8., 8., 0., 16., 14., 6., 0., 11., 15., 0., 0., 0.,
          20., 1., 1., 5., 0., 0., 10., 1., 3., 0., 0., 4., 1., 1., 3.,
          20., 4., 20., 13., 4., 0., 9., 9., 5., 15., 8., 18., 18., 9.,
          17., 4., 4., 14., 18., 13., 0., 8., 0. ]
      - [ 6., 2., 20., 2., 20., 18., 15., 17., 15., 17., 1., 10., 1.,
          11., 8., 3., 1., 3., 0., 4., 6., 9., 0., 8., 0., 18., 15., 18.,
          15., 18., 15., 19., 15., 18., 15., 19., 15., 18., 15., 18.,
          18., 10., 1., 15., 15., 15., 0., 20., 3., 1., 11., 13., 17.,
          18., 10., 6., 19., 7., 5., 11., 18., 16., 3., 17., 19., 19.,
          0., 0., 18., 1., 11., 19., 19., 18., 18., 18., 19., 17., 19.,
          15. ]
      - [ 9., 13., 20., 20., 20., 0., 4., 0., 4., 0., 4., 0., 5., 8.,
          12., 20., 20., 20., 20., 4., 18., 14., 0., 0., 0., 9., 5., 1.,
          14., 18., 14., 18., 14., 17., 14., 0., 0., 0., 0., 12., 5., 5.,
          20., 20., 6., 6., 20., 20., 11., 0., 0., 20., 14., 1., 1., 20.,
          20., 9., 0., 20., 11., 9., 0., 0., 19., 12., 0., 0., 13., 11.,
          11., 0., 19., 14., 14., 0., 0., 13., 11., 0. ]
      - [ 20., 6., 2., 12., 0., 20., 0., 5., 0., 4., 18., 14., 1., 12.,
          17., 1., 11., 15., 11., 0., 0., 13., 8., 12., 16., 0., 8., 8.,
          17., 6., 19., 15., 19., 19., 19., 16., 19., 16., 18., 13., 4.,
          4., 2., 20., 9., 7., 1., 19., 2., 20., 20., 16., 3., 1., 11.,
          11., 4., 8., 10., 10., 19., 15., 2., 0., 9., 9., 9., 19., 7.,
          0., 0., 18., 18., 19., 15., 17., 17., 14., 18., 16. ]
      - [ 4., 5., 5., 7., 2., 7., 4., 2., 5., 2., 5., 1., 5., 1., 4., 2.,
          5., 8., 5., 20., 4., 14., 10., 9., 9., 15., 18., 15., 5., 15.,
          19., 16., 19., 15., 19., 15., 6., 15., 6., 0., 20., 11., 4.,
          20., 0., 1., 1., 3., 5., 1., 2., 12., 20., 11., 1., 5., 11.,
          6., 6., 10., 0., 13., 15., 0., 14., 18., 18., 11., 17., 15.,
          2., 14., 0., 11., 13., 17., 11., 14., 12., 14. ]
      - [ 20., 20., 20., 20., 20., 20., 20., 4., 4., 4., 4., 5., 5., 0.,
          4., 4., 5., 14., 20., 20., 0., 0., 0., 0., 0., 0., 0., 4., 5.,
          5., 5., 13., 16., 15., 19., 17., 19., 14., 0., 0., 13., 20.,
          20., 20., 7., 8., 11., 14., 14., 14., 15., 14., 14., 11., 12.,
          13., 12., 14., 14., 14., 13., 0., 0., 0., 15., 16., 16., 15.,
          15., 16., 16., 15., 15., 15., 17., 14., 16., 16., 14., 16. ]
      - [ 12., 5., 7., 15., 8., 15., 20., 5., 3., 5., 3., 10., 20., 10.,
          20., 0., 20., 0., 20., 6., 17., 10., 7., 15., 8., 15., 0., 16.,
          18., 5., 17., 15., 0., 10., 0., 0., 0., 5., 0., 6., 15., 20.,
          20., 8., 20., 1., 7., 2., 4., 20., 1., 20., 0., 10., 20., 3.,
          7., 0., 8., 20., 17., 0., 0., 10., 0., 17., 19., 2., 4., 0.,
          13., 0., 10., 10., 0., 11., 7., 10., 8., 0. ]
      - [ 10., 0., 5., 2., 17., 1., 12., 2., 6., 2., 18., 9., 12., 20.,
          20., 4., 18., 20., 20., 3., 18., 14., 18., 8., 17., 9., 18.,
          9., 18., 9., 18., 9., 18., 0., 0., 15., 19., 0., 0., 16., 1.,
          5., 3., 1., 9., 2., 8., 20., 1., 1., 0., 0., 6., 8., 1., 15.,
          19., 0., 0., 16., 1., 5., 9., 19., 15., 2., 8., 0., 3., 15.,
          0., 8., 12., 8., 1., 15., 19., 8., 16., 16. ]
      - [ 0., 2., 1., 2., 0., 2., 0., 3., 1., 13., 0., 4., 1., 3., 6.,
          4., 1., 4., 1., 20., 16., 18., 16., 17., 15., 18., 0., 19.,
          16., 18., 6., 13., 10., 19., 15., 19., 16., 19., 6., 0., 0.,
          0., 1., 1., 11., 0., 0., 12., 1., 11., 12., 20., 20., 3., 7.,
          0., 0., 3., 1., 7., 10., 18., 16., 13., 17., 12., 18., 14., 1.,
          15., 12., 0., 0., 13., 17., 14., 16., 5., 17., 17. ]
      - [ 19., 11., 3., 6., 7., 0., 2., 10., 2., 0., 2., 4., 2., 0., 9.,
          0., 3., 0., 8., 0., 19., 17., 19., 17., 19., 11., 19., 17.,
          19., 17., 19., 16., 18., 5., 14., 17., 8., 17., 14., 11., 5.,
          20., 6., 2., 11., 5., 3., 4., 2., 14., 3., 1., 15., 6., 4.,
          20., 10., 1., 12., 0., 19., 0., 12., 16., 11., 19., 19., 4.,
          18., 14., 15., 19., 15., 18., 18., 0., 15., 17., 12., 10. ]
      - [ 1., 4., 1., 3., 0., 3., 6., 2., 1., 9., 2., 9., 7., 3., 1., 4.,
          1., 19., 1., 9., 1., 19., 12., 19., 16., 19., 16., 14., 17.,
          14., 12., 9., 17., 10., 17., 14., 17., 19., 12., 15., 4., 0.,
          4., 3., 1., 20., 6., 8., 1., 3., 13., 6., 2., 5., 7., 19., 4.,
          8., 1., 1., 4., 18., 14., 13., 15., 0., 10., 18., 3., 19., 13.,
          14., 18., 16., 15., 19., 6., 16., 1., 17. ]
      - [ 2., 7., 11., 14., 11., 14., 18., 14., 6., 1., 6., 3., 6., 2.,
          6., 11., 13., 18., 20., 19., 11., 15., 19., 16., 19., 14., 19.,
          15., 7., 1., 7., 10., 15., 18., 15., 19., 13., 19., 0., 19.,
          20., 9., 0., 11., 20., 20., 8., 1., 20., 13., 0., 0., 4., 16.,
          1., 1., 3., 20., 2., 2., 0., 9., 13., 11., 0., 0., 14., 14.,
          0., 13., 13., 15., 4., 16., 14., 14., 3., 0., 17., 19. ]
      - [ 9., 1., 9., 11., 19., 2., 20., 7., 19., 12., 4., 2., 9., 6.,
          0., 2., 14., 2., 14., 2., 9., 16., 19., 12., 19., 7., 0., 7.,
          19., 12., 14., 12., 19., 16., 14., 16., 14., 12., 14., 15.,
          14., 1., 5., 20., 10., 14., 13., 5., 20., 0., 10., 3., 1., 14.,
          10., 19., 1., 20., 20., 2., 14., 1., 19., 0., 10., 14., 13.,
          17., 0., 14., 10., 3., 17., 14., 18., 19., 15., 0., 0., 12. ]
      - [ 6., 4., 7., 10., 17., 5., 18., 5., 17., 15., 7., 0., 2., 5.,
          13., 5., 2., 0., 8., 0., 6., 18., 18., 10., 17., 15., 18., 16.,
          17., 16., 18., 16., 18., 15., 13., 16., 19., 16., 18., 16.,
          11., 20., 12., 20., 1., 5., 0., 2., 12., 5., 3., 11., 12., 14.,
          20., 5., 7., 4., 1., 16., 19., 0., 16., 0., 1., 17., 19., 16.,
          18., 5., 15., 19., 12., 18., 0., 19., 19., 8., 18., 16. ]
      - [ 11., 12., 3., 7., 10., 1., 3., 13., 4., 0., 4., 1., 4., 0., 4.,
          1., 4., 2., 4., 1., 16., 18., 4., 17., 16., 13., 10., 19., 16.,
          18., 15., 19., 16., 19., 16., 19., 16., 19., 15., 18., 9., 5.,
          15., 2., 2., 20., 20., 3., 20., 20., 4., 0., 1., 3., 0., 10.,
          0., 3., 1., 7., 13., 19., 17., 6., 18., 0., 0., 19., 0., 0.,
          18., 18., 17., 17., 17., 18., 16., 3., 19., 17. ]
      - [ 8., 8., 7., 7., 6., 5., 5., 5., 8., 8., 8., 8., 8., 8., 8., 9.,
          10., 10., 11., 11., 10., 10., 9., 9., 9., 9., 9., 9., 9., 10.,
          10., 10., 10., 10., 10., 12., 12., 12., 12., 12., 20., 20.,
          20., 20., 20., 5., 4., 2., 0., 0., 0., 15., 15., 20., 20., 20.,
          20., 20., 20., 20., 0., 0., 0., 0., 0., 7., 7., 7., 14., 15.,
          17., 19., 19., 0., 0., 0., 0., 0., 0., 0. ]
      - [ 20., 20., 20., 19., 15., 4., 2., 2., 2., 6., 5., 5., 9., 10.,
          20., 20., 20., 20., 2., 20., 0., 0., 0., 19., 16., 4., 19., 7.,
          7., 9., 9., 17., 9., 10., 0., 0., 0., 0., 2., 0., 20., 20., 6.,
          7., 5., 6., 7., 7., 9., 9., 13., 20., 20., 20., 20., 4., 4.,
          11., 6., 3., 0., 0., 18., 7., 5., 11., 11., 11., 11., 12., 13.,
          0., 0., 0., 0., 4., 4., 11., 6., 6. ]
      - [ 3., 3., 8., 12., 1., 5., 2., 1., 1., 7., 4., 20., 20., 3., 20.,
          20., 19., 20., 20., 3., 15., 15., 8., 12., 14., 10., 19., 14.,
          15., 15., 5., 0., 0., 3., 0., 0., 19., 0., 0., 3., 20., 4., 4.,
          0., 10., 5., 4., 7., 2., 5., 5., 4., 3., 8., 4., 0., 20., 20.,
          20., 6., 0., 8., 8., 19., 10., 10., 5., 9., 4., 5., 6., 4., 7.,
          9., 8., 9., 0., 0., 0., 16. ]
      - [ 20., 1., 20., 20., 20., 5., 0., 20., 1., 3., 0., 4., 0., 3.,
          0., 20., 0., 4., 20., 20., 0., 1., 0., 0., 0., 17., 1., 0.,
          14., 17., 14., 18., 8., 18., 14., 0., 7., 11., 0., 0., 6., 1.,
          12., 9., 9., 5., 14., 8., 8., 20., 5., 5., 20., 20., 8., 20.,
          20., 5., 11., 20., 16., 14., 12., 13., 17., 11., 14., 16., 14.,
          0., 13., 17., 0., 0., 14., 0., 0., 13., 13., 0. ]
      - [ 5., 1., 0., 7., 4., 2., 0., 2., 4., 8., 5., 7., 5., 3., 5., 3.,
          0., 2., 0., 2., 9., 18., 15., 18., 5., 19., 10., 19., 16., 19.,
          11., 19., 6., 19., 10., 9., 10., 3., 6., 18., 2., 1., 1., 1.,
          4., 0., 12., 1., 3., 0., 2., 10., 1., 3., 5., 2., 8., 20., 1.,
          5., 18., 1., 19., 19., 8., 18., 18., 19., 19., 15., 16., 10.,
          1., 9., 5., 2., 8., 0., 19., 13. ]
      - [ 5., 8., 4., 1., 4., 2., 5., 2., 5., 2., 20., 9., 5., 2., 5.,
          11., 5., 10., 7., 9., 18., 19., 18., 9., 17., 15., 18., 10.,
          17., 9., 0., 9., 5., 9., 18., 16., 14., 11., 8., 18., 20., 3.,
          3., 20., 2., 0., 0., 7., 1., 1., 7., 2., 0., 20., 5., 1., 2.,
          0., 0., 1., 0., 3., 13., 0., 4., 16., 16., 18., 18., 19., 19.,
          17., 6., 0., 16., 5., 15., 19., 19., 1. ]
      - [ 0., 2., 11., 11., 11., 2., 1., 1., 1., 0., 0., 6., 20., 20.,
          20., 20., 10., 20., 20., 20., 15., 15., 15., 13., 11., 12.,
          14., 11., 10., 6., 15., 15., 0., 0., 0., 0., 10., 0., 0., 0.,
          0., 0., 1., 20., 20., 6., 7., 6., 5., 6., 5., 2., 5., 3., 1.,
          0., 20., 20., 20., 20., 10., 9., 5., 0., 0., 7., 11., 6., 7.,
          7., 16., 7., 5., 11., 6., 11., 0., 0., 0., 0. ]
      - [ 4., 1., 3., 1., 16., 1., 3., 1., 4., 1., 20., 2., 4., 7., 4.,
          9., 5., 8., 20., 15., 16., 19., 16., 19., 16., 14., 16., 19.,
          15., 14., 0., 15., 11., 13., 4., 15., 18., 14., 0., 15., 20.,
          1., 1., 2., 0., 12., 20., 1., 9., 2., 0., 0., 7., 1., 1., 6.,
          0., 20., 16., 1., 0., 9., 11., 6., 14., 16., 0., 13., 17., 15.,
          8., 12., 16., 13., 17., 19., 6., 0., 16., 7. ]
      - [ 0., 20., 20., 16., 13., 16., 5., 16., 5., 2., 4., 2., 4., 2.,
          4., 0., 4., 0., 20., 0., 2., 0., 0., 17., 13., 16., 13., 17.,
          14., 17., 13., 17., 12., 8., 12., 2., 5., 8., 0., 0., 0., 0.,
          0., 20., 10., 6., 8., 20., 13., 11., 20., 20., 6., 4., 8., 20.,
          3., 3., 20., 20., 19., 17., 17., 0., 16., 16., 14., 0., 17.,
          11., 0., 0., 14., 10., 8., 0., 11., 11., 0., 0. ]
      - [ 0., 2., 0., 20., 0., 10., 0., 4., 0., 3., 0., 4., 0., 3., 1.,
          20., 20., 3., 2., 20., 0., 3., 1., 0., 13., 17., 14., 17., 14.,
          17., 14., 18., 13., 4., 14., 0., 0., 3., 2., 0., 0., 2., 1.,
          1., 7., 20., 4., 6., 20., 20., 5., 5., 20., 4., 6., 20., 20.,
          5., 11., 20., 12., 14., 18., 17., 13., 0., 4., 14., 0., 0.,
          11., 11., 0., 14., 14., 0., 0., 11., 11., 0. ]
      - [ 20., 20., 1., 5., 2., 4., 13., 4., 2., 11., 1., 5., 8., 10.,
          13., 20., 20., 20., 20., 20., 0., 0., 1., 5., 2., 17., 13.,
          11., 19., 17., 14., 17., 14., 17., 14., 0., 0., 0., 0., 0.,
          20., 2., 4., 20., 5., 3., 20., 8., 12., 20., 13., 5., 20., 6.,
          8., 20., 11., 5., 20., 8., 0., 10., 8., 0., 7., 11., 0., 10.,
          12., 0., 13., 13., 0., 14., 14., 0., 13., 13., 0., 8. ]
      - [ 20., 20., 1., 6., 1., 4., 0., 4., 20., 20., 20., 20., 16., 20.,
          15., 10., 5., 9., 6., 1., 0., 0., 12., 17., 12., 18., 12., 15.,
          0., 0., 0., 0., 16., 0., 15., 11., 16., 11., 16., 11., 6., 2.,
          20., 20., 5., 5., 3., 3., 20., 4., 4., 4., 2., 20., 3., 3., 3.,
          3., 5., 20., 6., 19., 0., 0., 7., 16., 18., 7., 0., 17., 19.,
          19., 6., 0., 3., 14., 18., 3., 5., 0. ]
      - [ 11., 0., 18., 8., 11., 9., 18., 9., 13., 16., 5., 20., 0., 20.,
          0., 1., 0., 10., 0., 20., 11., 15., 18., 8., 12., 15., 18., 9.,
          13., 16., 13., 0., 13., 0., 13., 17., 1., 10., 7., 0., 1., 15.,
          20., 15., 20., 10., 20., 12., 3., 5., 17., 0., 4., 8., 20., 1.,
          9., 15., 2., 20., 18., 16., 0., 15., 0., 10., 0., 18., 3., 15.,
          17., 4., 12., 14., 0., 5., 15., 15., 6., 0. ]
      - [ 8., 8., 8., 9., 5., 16., 17., 20., 1., 20., 2., 15., 15., 12.,
          15., 11., 14., 14., 13., 13., 10., 19., 19., 12., 17., 17.,
          17., 0., 1., 0., 8., 19., 16., 15., 15., 15., 14., 14., 13.,
          13., 20., 8., 10., 20., 20., 4., 20., 4., 0., 3., 0., 3., 1.,
          13., 16., 11., 1., 4., 20., 1., 0., 8., 10., 0., 0., 4., 0.,
          4., 10., 3., 0., 15., 13., 19., 17., 15., 12., 6., 0., 11. ]
      - [ 20., 20., 20., 5., 2., 2., 2., 3., 3., 3., 4., 8., 6., 20.,
          20., 20., 20., 20., 20., 20., 0., 0., 0., 5., 7., 4., 19., 19.,
          3., 5., 7., 8., 6., 0., 0., 0., 0., 0., 0., 0., 20., 20., 4.,
          5., 5., 3., 10., 4., 11., 20., 20., 20., 20., 20., 20., 20.,
          20., 20., 20., 6., 0., 0., 6., 9., 10., 10., 12., 10., 11., 0.,
          0., 0., 0., 0., 0., 0., 0., 0., 0., 7. ]
      - [ 1., 1., 1., 1., 1., 1., 1., 1., 1., 1., 1., 1., 1., 1., 1., 1.,
          1., 4., 10., 20., 1., 1., 2., 2., 2., 2., 2., 1., 2., 2., 2.,
          2., 2., 2., 2., 13., 19., 19., 19., 0., 20., 0., 2., 15., 15.,
          15., 15., 15., 15., 16., 15., 15., 15., 15., 16., 16., 16.,
          16., 16., 16., 0., 16., 16., 16., 17., 17., 17., 17., 17., 17.,
          18., 17., 17., 17., 18., 18., 18., 18., 18., 18. ]
      - [ 4., 16., 18., 1., 3., 11., 5., 3., 1., 7., 0., 3., 0., 2., 0.,
          3., 0., 3., 0., 3., 19., 17., 18., 16., 19., 16., 19., 17.,
          19., 16., 19., 11., 19., 17., 13., 16., 19., 16., 19., 16.,
          10., 3., 13., 3., 0., 6., 16., 3., 16., 9., 9., 4., 20., 0.,
          10., 20., 1., 0., 2., 0., 18., 16., 13., 19., 19., 8., 16.,
          18., 17., 13., 19., 17., 0., 18., 12., 0., 19., 13., 8., 18. ]
      - [ 20., 17., 16., 14., 14., 14., 10., 10., 10., 10., 20., 20.,
          20., 7., 4., 4., 4., 20., 5., 20., 0., 17., 17., 15., 16., 15.,
          15., 10., 10., 10., 0., 0., 0., 18., 9., 12., 9., 0., 5., 0.,
          20., 20., 20., 20., 14., 16., 20., 13., 16., 13., 6., 15., 15.,
          20., 3., 3., 2., 1., 13., 20., 0., 0., 0., 0., 16., 18., 0.,
          15., 16., 16., 9., 15., 15., 0., 5., 6., 4., 2., 13., 0. ]
      - [ 3., 0., 3., 1., 3., 0., 3., 2., 4., 1., 3., 1., 19., 2., 4.,
          1., 3., 1., 4., 1., 15., 17., 14., 17., 14., 17., 4., 17., 15.,
          17., 19., 18., 19., 18., 9., 17., 19., 18., 10., 17., 1., 1.,
          3., 0., 0., 20., 7., 1., 4., 0., 16., 1., 7., 20., 0., 0., 1.,
          1., 11., 10., 5., 19., 19., 16., 18., 0., 19., 19., 4., 14.,
          18., 15., 17., 0., 8., 16., 17., 19., 17., 16. ]
      - [ 1., 12., 0., 4., 1., 4., 16., 12., 1., 5., 1., 20., 0., 20.,
          1., 20., 20., 20., 20., 20., 16., 19., 9., 4., 1., 19., 16.,
          19., 15., 12., 1., 0., 1., 0., 7., 0., 0., 0., 0., 0., 2., 0.,
          0., 20., 3., 5., 20., 14., 2., 0., 20., 9., 1., 20., 20., 0.,
          0., 20., 5., 1., 12., 14., 0., 0., 5., 9., 0., 14., 8., 8., 0.,
          9., 9., 0., 0., 8., 6., 0., 5., 7. ]
      - [ 16., 1., 4., 1., 4., 7., 4., 15., 5., 15., 12., 20., 8., 20.,
          20., 20., 20., 20., 20., 20., 16., 19., 5., 7., 5., 8., 12.,
          15., 12., 16., 18., 0., 19., 0., 0., 0., 0., 0., 0., 0., 20.,
          1., 20., 20., 2., 2., 20., 3., 5., 20., 20., 8., 6., 20., 20.,
          7., 0., 20., 10., 1., 0., 3., 0., 0., 6., 8., 0., 5., 12., 0.,
          0., 8., 10., 0., 0., 9., 9., 0., 12., 12. ]
      - [ 20., 4., 3., 3., 2., 2., 1., 1., 0., 0., 0., 0., 0., 0., 5.,
          20., 20., 20., 20., 20., 0., 5., 5., 5., 5., 5., 4., 3., 16.,
          16., 16., 16., 16., 16., 11., 0., 0., 0., 0., 0., 8., 6., 4.,
          2., 1., 1., 9., 9., 8., 8., 9., 8., 9., 8., 8., 8., 8., 20.,
          20., 20., 13., 13., 13., 13., 13., 14., 13., 13., 13., 13.,
          14., 14., 13., 13., 13., 13., 13., 0., 0., 0. ]
      - [ 20., 7., 6., 6., 5., 5., 4., 3., 2., 2., 2., 2., 2., 2., 3.,
          20., 20., 20., 20., 20., 0., 7., 8., 8., 8., 8., 8., 8., 18.,
          19., 19., 19., 19., 19., 19., 0., 0., 0., 0., 0., 20., 20., 8.,
          7., 6., 4., 2., 1., 2., 8., 8., 8., 8., 8., 8., 8., 8., 8., 8.,
          9., 0., 0., 13., 14., 13., 14., 14., 13., 14., 13., 13., 13.,
          14., 14., 14., 14., 14., 14., 14., 14. ]
      - [ 20., 20., 20., 20., 7., 7., 7., 7., 6., 5., 5., 4., 4., 4., 4.,
          20., 20., 20., 20., 20., 0., 0., 0., 0., 9., 9., 9., 9., 9.,
          19., 19., 19., 19., 19., 19., 0., 0., 0., 0., 0., 20., 20.,
          20., 20., 11., 9., 8., 4., 4., 4., 11., 11., 9., 9., 9., 9.,
          9., 9., 9., 9., 0., 0., 0., 0., 14., 14., 14., 14., 14., 14.,
          14., 14., 14., 14., 14., 14., 14., 14., 14., 14. ]
      - [ 4., 4., 3., 2., 2., 1., 0., 0., 0., 1., 0., 16., 20., 20., 20.,
          20., 20., 20., 20., 20., 18., 6., 6., 5., 5., 10., 16., 17.,
          16., 18., 16., 16., 0., 0., 0., 0., 0., 0., 0., 0., 6., 5., 3.,
          2., 0., 0., 0., 5., 5., 5., 5., 6., 6., 6., 6., 6., 6., 0., 0.,
          20., 10., 10., 10., 10., 10., 10., 10., 10., 10., 10., 10.,
          10., 10., 10., 10., 10., 11., 9., 9., 0. ]
      - [ 4., 3., 3., 2., 2., 2., 1., 0., 0., 0., 0., 0., 0., 20., 20.,
          20., 20., 20., 20., 20., 5., 5., 5., 5., 5., 4., 4., 7., 16.,
          16., 16., 16., 15., 0., 0., 0., 0., 0., 0., 0., 7., 6., 3., 1.,
          0., 0., 8., 7., 8., 8., 8., 8., 8., 8., 8., 8., 8., 20., 20.,
          20., 12., 12., 12., 12., 12., 12., 12., 12., 12., 12., 12.,
          12., 12., 12., 12., 12., 11., 0., 0., 0. ]
      - [ 20., 4., 4., 3., 3., 2., 2., 1., 0., 0., 0., 0., 0., 0., 0.,
          13., 20., 20., 20., 20., 0., 6., 6., 6., 6., 6., 6., 15., 16.,
          17., 17., 17., 17., 17., 16., 13., 0., 0., 0., 0., 8., 7., 5.,
          3., 1., 1., 1., 8., 8., 8., 8., 8., 8., 7., 7., 7., 8., 9.,
          20., 20., 14., 14., 14., 14., 13., 14., 13., 14., 14., 13.,
          14., 14., 14., 15., 14., 14., 14., 13., 0., 0. ]
      - [ 20., 7., 6., 6., 5., 5., 4., 4., 3., 2., 2., 2., 2., 2., 4.,
          20., 20., 20., 20., 20., 0., 9., 9., 9., 9., 8., 8., 8., 19.,
          19., 19., 19., 19., 19., 15., 0., 0., 0., 0., 0., 20., 20., 9.,
          8., 6., 4., 2., 1., 1., 1., 9., 8., 8., 8., 8., 8., 8., 8., 8.,
          8., 0., 0., 13., 13., 14., 13., 14., 14., 14., 14., 14., 13.,
          14., 14., 13., 14., 13., 13., 13., 13. ]
      - [ 20., 3., 2., 2., 1., 1., 1., 0., 0., 0., 0., 0., 0., 0., 20.,
          20., 20., 20., 20., 20., 0., 5., 5., 4., 4., 4., 3., 3., 16.,
          16., 16., 16., 16., 16., 0., 0., 0., 0., 0., 0., 7., 4., 2.,
          1., 1., 1., 8., 8., 9., 8., 8., 8., 8., 8., 8., 8., 8., 20.,
          20., 20., 13., 13., 13., 13., 13., 13., 13., 13., 13., 13.,
          13., 13., 13., 13., 13., 13., 13., 0., 0., 0. ]
      - [ 20., 4., 3., 3., 2., 2., 2., 1., 0., 0., 0., 0., 0., 0., 3.,
          20., 20., 20., 20., 20., 0., 5., 5., 5., 5., 4., 4., 3., 14.,
          16., 16., 16., 16., 16., 14., 0., 0., 0., 0., 0., 8., 7., 4.,
          2., 1., 1., 9., 9., 9., 9., 8., 9., 9., 9., 8., 9., 9., 20.,
          20., 20., 13., 13., 13., 14., 14., 14., 13., 13., 13., 14.,
          14., 14., 13., 13., 14., 13., 13., 0., 0., 0. ]
      - [ 20., 4., 3., 3., 2., 2., 2., 1., 0., 0., 0., 0., 0., 0., 0.,
          12., 20., 20., 20., 20., 0., 5., 6., 7., 6., 6., 5., 6., 16.,
          16., 16., 16., 16., 16., 16., 12., 0., 0., 0., 0., 8., 7., 4.,
          2., 1., 1., 2., 3., 8., 8., 8., 8., 8., 8., 8., 8., 8., 20.,
          20., 20., 14., 14., 14., 14., 14., 14., 14., 14., 14., 14.,
          14., 14., 15., 14., 14., 14., 14., 0., 0., 0. ]
      - [ 5., 5., 4., 4., 3., 2., 2., 1., 0., 1., 0., 1., 7., 20., 20.,
          20., 20., 20., 20., 20., 7., 18., 6., 19., 6., 18., 5., 14.,
          17., 17., 17., 18., 17., 0., 0., 0., 0., 0., 0., 0., 8., 7.,
          5., 4., 2., 0., 0., 0., 7., 7., 7., 7., 7., 7., 7., 8., 8., 8.,
          1., 3., 10., 11., 11., 11., 11., 11., 11., 12., 11., 11., 11.,
          11., 12., 12., 11., 12., 12., 12., 11., 3. ]
      - [ 20., 3., 2., 1., 1., 0., 0., 0., 0., 0., 0., 0., 0., 0., 1.,
          1., 2., 3., 14., 20., 0., 17., 17., 16., 17., 17., 17., 17.,
          17., 17., 17., 17., 17., 17., 16., 17., 16., 17., 16., 0., 5.,
          3., 2., 1., 1., 1., 12., 11., 10., 9., 8., 5., 4., 3., 2., 1.,
          1., 1., 20., 20., 13., 15., 16., 17., 17., 17., 17., 17., 16.,
          15., 13., 12., 11., 10., 18., 18., 18., 17., 0., 0. ]
      - [ 3., 2., 2., 1., 0., 0., 0., 0., 0., 0., 0., 0., 0., 0., 0., 1.,
          1., 2., 14., 20., 16., 16., 17., 16., 16., 16., 16., 16., 16.,
          16., 17., 16., 16., 16., 16., 16., 16., 16., 16., 0., 4., 3.,
          1., 0., 0., 13., 13., 11., 10., 8., 7., 5., 3., 3., 2., 1., 0.,
          2., 20., 20., 14., 16., 17., 17., 17., 17., 17., 16., 16., 14.,
          13., 11., 10., 9., 18., 18., 18., 10., 0., 0. ]
      - [ 20., 6., 5., 5., 4., 4., 4., 3., 3., 3., 3., 3., 3., 3., 3.,
          4., 5., 6., 7., 20., 0., 19., 19., 19., 19., 19., 19., 19.,
          19., 19., 19., 19., 19., 19., 19., 19., 19., 19., 7., 0., 20.,
          20., 20., 7., 4., 2., 1., 1., 3., 12., 11., 9., 7., 6., 4., 3.,
          2., 1., 1., 1., 0., 0., 0., 14., 15., 16., 17., 18., 17., 17.,
          16., 15., 14., 13., 11., 10., 10., 17., 17., 17. ]
      - [ 20., 20., 4., 4., 3., 2., 2., 2., 1., 1., 1., 1., 1., 1., 2.,
          2., 3., 3., 4., 20., 0., 0., 18., 18., 18., 18., 18., 18., 18.,
          18., 18., 18., 18., 18., 18., 18., 18., 18., 17., 0., 20., 8.,
          5., 4., 2., 2., 2., 14., 14., 12., 11., 9., 8., 5., 4., 2., 2.,
          2., 2., 20., 0., 13., 15., 17., 18., 18., 18., 17., 17., 15.,
          15., 14., 13., 10., 10., 10., 18., 18., 17., 0. ]
      - [ 20., 2., 1., 1., 0., 0., 0., 0., 0., 0., 0., 0., 0., 0., 0.,
          0., 1., 2., 14., 20., 0., 16., 16., 16., 16., 16., 16., 16.,
          16., 16., 16., 16., 16., 16., 16., 16., 16., 16., 16., 0., 4.,
          2., 1., 1., 1., 13., 11., 11., 9., 7., 6., 4., 3., 2., 1., 1.,
          1., 20., 20., 20., 15., 16., 17., 17., 17., 17., 16., 16., 15.,
          14., 12., 10., 9., 17., 18., 18., 18., 0., 0., 0. ]
      - [ 20., 3., 2., 1., 1., 0., 0., 0., 0., 0., 0., 0., 0., 0., 0.,
          1., 1., 2., 16., 19., 0., 17., 15., 16., 15., 16., 15., 16.,
          16., 15., 16., 15., 16., 15., 16., 15., 16., 15., 17., 19., 5.,
          3., 2., 1., 3., 13., 12., 11., 9., 7., 6., 4., 2., 2., 2., 1.,
          1., 1., 20., 19., 14., 16., 17., 17., 17., 17., 17., 16., 14.,
          14., 12., 10., 9., 17., 17., 17., 18., 18., 0., 19. ]
      - [ 5., 3., 3., 2., 1., 1., 1., 1., 1., 1., 1., 1., 1., 1., 1., 2.,
          2., 3., 4., 17., 17., 17., 17., 17., 18., 17., 17., 17., 17.,
          17., 17., 17., 17., 17., 17., 18., 17., 18., 17., 17., 20., 4.,
          3., 1., 1., 0., 2., 12., 12., 10., 8., 7., 5., 4., 2., 1., 0.,
          0., 4., 20., 0., 14., 16., 17., 18., 18., 18., 17., 16., 16.,
          15., 13., 11., 10., 8., 18., 18., 19., 17., 0. ]
      - [ 7., 5., 4., 4., 3., 3., 3., 3., 3., 3., 3., 2., 2., 3., 3., 3.,
          4., 4., 6., 20., 19., 19., 19., 19., 19., 19., 19., 19., 19.,
          19., 19., 19., 19., 19., 19., 19., 19., 19., 8., 0., 20., 20.,
          11., 4., 2., 1., 1., 0., 4., 12., 11., 10., 8., 6., 5., 3., 2.,
          1., 0., 0., 0., 0., 12., 15., 17., 17., 18., 18., 18., 17.,
          17., 16., 15., 13., 10., 9., 8., 17., 17., 17. ]
      - [ 2., 1., 0., 0., 0., 0., 0., 0., 0., 0., 0., 0., 0., 0., 0., 0.,
          0., 1., 13., 14., 16., 16., 16., 16., 16., 16., 16., 16., 16.,
          16., 16., 16., 16., 16., 16., 16., 16., 16., 16., 16., 2., 1.,
          0., 0., 13., 12., 11., 10., 8., 6., 5., 3., 2., 1., 1., 0., 0.,
          20., 20., 20., 16., 17., 17., 17., 17., 17., 17., 16., 15.,
          13., 12., 11., 9., 18., 19., 19., 19., 0., 0., 0. ]
      - [ 20., 3., 2., 2., 1., 1., 1., 1., 0., 1., 0., 1., 1., 1., 1.,
          1., 2., 3., 16., 20., 0., 17., 16., 17., 16., 16., 16., 16.,
          17., 16., 17., 16., 17., 16., 17., 16., 17., 16., 16., 0., 8.,
          4., 2., 1., 2., 4., 13., 12., 10., 9., 7., 5., 4., 3., 2., 1.,
          1., 1., 20., 20., 10., 15., 16., 17., 17., 17., 17., 16., 15.,
          14., 14., 11., 9., 9., 17., 17., 18., 16., 0., 0. ]
      - [ 14., 13., 1., 0., 0., 0., 0., 0., 0., 0., 0., 0., 0., 0., 0.,
          0., 0., 1., 4., 20., 15., 15., 15., 15., 15., 15., 15., 15.,
          15., 15., 15., 15., 15., 15., 15., 15., 15., 15., 15., 0., 3.,
          2., 2., 2., 13., 13., 12., 10., 8., 6., 5., 3., 3., 1., 0., 0.,
          20., 20., 20., 20., 16., 17., 17., 17., 18., 17., 16., 16.,
          14., 13., 11., 9., 8., 18., 18., 18., 0., 0., 0., 0. ]
      - [ 3., 2., 1., 1., 0., 0., 0., 0., 0., 0., 0., 0., 0., 0., 0., 1.,
          1., 2., 3., 16., 18., 19., 18., 19., 18., 19., 18., 19., 18.,
          19., 18., 19., 18., 19., 18., 19., 18., 18., 18., 18., 4., 2.,
          1., 0., 0., 0., 13., 12., 11., 9., 8., 7., 5., 4., 2., 1., 0.,
          0., 0., 1., 14., 16., 17., 18., 18., 18., 18., 17., 17., 16.,
          15., 13., 12., 10., 9., 17., 19., 18., 19., 15. ]
      - [ 17., 15., 3., 3., 2., 2., 1., 1., 1., 1., 1., 1., 1., 1., 1.,
          2., 3., 2., 5., 20., 17., 17., 17., 17., 17., 17., 17., 17.,
          17., 17., 17., 17., 17., 17., 17., 17., 17., 17., 6., 0., 20.,
          6., 4., 2., 2., 2., 13., 12., 11., 10., 8., 6., 5., 3., 2., 1.,
          1., 0., 20., 20., 0., 14., 17., 17., 17., 18., 18., 17., 16.,
          15., 14., 13., 11., 9., 16., 17., 17., 17., 0., 0. ]
      - [ 15., 3., 2., 1., 0., 0., 0., 0., 0., 0., 0., 0., 0., 0., 0.,
          1., 1., 2., 4., 20., 16., 16., 16., 16., 16., 16., 16., 16.,
          16., 16., 16., 16., 16., 16., 16., 16., 16., 16., 16., 0., 4.,
          3., 2., 1., 1., 13., 12., 11., 9., 8., 6., 4., 3., 2., 1., 0.,
          0., 20., 20., 20., 14., 16., 17., 17., 18., 18., 17., 16., 15.,
          14., 13., 11., 9., 14., 18., 18., 18., 0., 0., 0. ]
      - [ 15., 2., 2., 1., 0., 0., 0., 0., 0., 0., 0., 0., 0., 0., 0.,
          0., 1., 2., 2., 3., 17., 17., 17., 17., 17., 17., 17., 17.,
          17., 17., 17., 17., 17., 17., 17., 17., 17., 17., 17., 17., 4.,
          3., 1., 1., 1., 2., 13., 12., 10., 9., 7., 6., 4., 2., 1., 0.,
          0., 0., 20., 20., 15., 16., 18., 19., 19., 18., 18., 17., 17.,
          15., 14., 12., 10., 9., 15., 18., 19., 19., 0., 0. ]
      - [ 20., 20., 7., 7., 6., 5., 5., 5., 5., 5., 5., 5., 5., 5., 5.,
          5., 7., 7., 20., 20., 0., 0., 19., 19., 19., 19., 19., 19.,
          19., 19., 19., 19., 19., 19., 19., 19., 19., 19., 0., 0., 20.,
          20., 20., 20., 20., 5., 4., 2., 14., 14., 14., 12., 11., 8.,
          6., 5., 4., 4., 2., 2., 0., 0., 0., 0., 0., 15., 15., 17., 17.,
          17., 17., 15., 15., 13., 10., 8., 8., 8., 15., 17. ]
      - [ 20., 6., 4., 3., 3., 2., 3., 2., 2., 2., 2., 2., 2., 2., 3.,
          3., 3., 4., 20., 17., 0., 18., 18., 18., 18., 17., 18., 17.,
          18., 18., 18., 18., 18., 18., 18., 18., 18., 18., 0., 17., 20.,
          20., 5., 3., 2., 2., 1., 14., 12., 12., 10., 8., 7., 5., 4.,
          2., 1., 1., 1., 20., 0., 0., 13., 16., 17., 17., 17., 17., 17.,
          16., 15., 14., 13., 11., 9., 7., 17., 19., 17., 0. ]
      - [ 20., 4., 2., 1., 1., 0., 0., 0., 0., 0., 0., 0., 0., 0., 0.,
          1., 2., 2., 14., 20., 0., 16., 16., 16., 16., 16., 16., 16.,
          17., 16., 17., 16., 16., 16., 16., 16., 16., 16., 15., 0., 5.,
          3., 2., 2., 1., 13., 12., 11., 9., 8., 6., 5., 4., 3., 1., 1.,
          1., 8., 20., 20., 14., 15., 17., 17., 17., 17., 16., 16., 15.,
          14., 13., 11., 9., 9., 18., 18., 17., 10., 0., 0. ]
      - [ 20., 5., 3., 3., 2., 2., 2., 2., 2., 2., 2., 2., 2., 2., 2.,
          3., 3., 4., 6., 20., 0., 18., 18., 18., 18., 18., 18., 18.,
          18., 18., 18., 18., 18., 18., 18., 18., 18., 18., 18., 0., 20.,
          20., 4., 2., 2., 1., 1., 13., 12., 11., 9., 8., 6., 5., 3., 2.,
          1., 1., 1., 20., 0., 0., 14., 16., 17., 17., 18., 18., 17.,
          16., 15., 13., 13., 11., 9., 16., 18., 18., 18., 0. ]
      - [ 14., 1., 0., 0., 0., 0., 0., 0., 0., 0., 0., 0., 0., 0., 0.,
          0., 0., 0., 1., 20., 15., 15., 15., 15., 15., 15., 15., 15.,
          15., 15., 15., 15., 15., 15., 15., 15., 15., 15., 15., 0., 2.,
          1., 1., 1., 13., 12., 11., 9., 7., 6., 4., 3., 2., 1., 0., 0.,
          20., 20., 20., 20., 17., 18., 18., 18., 17., 17., 16., 15.,
          14., 12., 11., 9., 8., 18., 18., 18., 0., 0., 0., 0. ]
      - [ 20., 2., 1., 1., 0., 0., 0., 0., 0., 0., 0., 0., 0., 0., 1.,
          1., 1., 2., 4., 20., 0., 16., 16., 16., 16., 16., 16., 17.,
          16., 16., 17., 17., 17., 17., 17., 17., 16., 16., 16., 0., 4.,
          2., 1., 1., 1., 12., 12., 11., 9., 7., 6., 5., 3., 2., 1., 1.,
          1., 7., 20., 20., 13., 16., 17., 17., 18., 17., 17., 16., 15.,
          14., 13., 11., 10., 10., 17., 18., 18., 15., 0., 0. ]
      - [ 12., 1., 0., 0., 0., 0., 0., 0., 0., 0., 0., 0., 0., 0., 0.,
          1., 2., 10., 20., 20., 13., 14., 14., 15., 15., 16., 16., 16.,
          16., 16., 16., 16., 15., 15., 15., 14., 13., 12., 0., 0., 2.,
          1., 1., 1., 11., 9., 7., 7., 9., 12., 12., 1., 0., 0., 1., 3.,
          5., 20., 20., 20., 14., 15., 16., 16., 15., 15., 13., 14., 16.,
          16., 17., 17., 17., 16., 15., 14., 11., 0., 0., 0. ]
      - [ 5., 4., 3., 3., 3., 2., 2., 2., 2., 2., 2., 2., 2., 2., 3., 3.,
          4., 5., 14., 20., 17., 18., 18., 18., 19., 19., 19., 19., 19.,
          19., 19., 19., 19., 19., 18., 18., 17., 17., 15., 0., 20., 20.,
          5., 2., 1., 0., 0., 2., 10., 8., 7., 7., 10., 12., 12., 0., 0.,
          0., 1., 4., 0., 0., 13., 15., 16., 17., 16., 17., 16., 15.,
          14., 16., 17., 17., 18., 18., 17., 17., 15., 13. ]
      - [ 3., 1., 1., 0., 0., 0., 0., 0., 0., 0., 0., 0., 0., 0., 0., 1.,
          2., 10., 12., 20., 14., 15., 15., 16., 16., 16., 16., 16., 17.,
          17., 16., 16., 16., 16., 15., 15., 14., 13., 12., 0., 3., 1.,
          1., 0., 11., 10., 8., 7., 7., 11., 12., 13., 0., 0., 0., 1.,
          3., 8., 20., 20., 14., 15., 16., 16., 16., 15., 14., 13., 15.,
          16., 17., 17., 18., 17., 16., 15., 13., 9., 0., 0. ]
      - [ 3., 2., 1., 1., 0., 0., 0., 0., 0., 0., 0., 0., 0., 1., 1., 2.,
          9., 10., 20., 20., 13., 14., 15., 16., 16., 16., 17., 16., 17.,
          17., 17., 17., 16., 16., 15., 15., 14., 13., 0., 0., 4., 2.,
          1., 0., 0., 11., 8., 7., 7., 9., 12., 12., 1., 0., 1., 2., 3.,
          6., 20., 20., 12., 14., 15., 15., 15., 15., 14., 12., 14., 16.,
          17., 17., 17., 17., 16., 15., 13., 11., 0., 0. ]
      - [ 14., 3., 2., 2., 1., 1., 0., 1., 1., 1., 1., 1., 1., 2., 2.,
          3., 4., 5., 13., 20., 15., 17., 17., 18., 18., 18., 18., 19.,
          19., 18., 19., 18., 18., 18., 17., 17., 16., 16., 14., 0., 6.,
          4., 2., 1., 1., 1., 2., 11., 8., 7., 8., 11., 12., 3., 0., 0.,
          1., 1., 3., 7., 6., 12., 14., 15., 16., 17., 17., 16., 15.,
          14., 15., 17., 17., 18., 18., 17., 17., 15., 13., 10. ]
      - [ 20., 14., 3., 3., 3., 2., 1., 1., 1., 1., 1., 1., 2., 2., 2.,
          3., 5., 5., 20., 20., 0., 15., 17., 17., 17., 18., 18., 18.,
          18., 18., 18., 18., 18., 18., 17., 17., 16., 16., 0., 0., 20.,
          6., 5., 2., 2., 2., 2., 11., 8., 8., 8., 12., 12., 12., 1., 1.,
          2., 2., 5., 20., 0., 11., 14., 15., 15., 17., 17., 15., 14.,
          14., 15., 15., 17., 17., 17., 17., 17., 15., 13., 0. ]
      - [ 20., 20., 4., 4., 3., 2., 2., 2., 1., 1., 1., 1., 2., 2., 2.,
          3., 5., 5., 13., 20., 0., 0., 17., 17., 18., 18., 19., 19.,
          19., 19., 19., 19., 19., 19., 18., 17., 16., 16., 14., 0., 20.,
          8., 5., 4., 2., 2., 2., 12., 9., 9., 9., 12., 12., 14., 2., 2.,
          2., 2., 4., 6., 0., 11., 14., 15., 15., 17., 17., 17., 15.,
          14., 14., 15., 17., 18., 18., 17., 17., 15., 14., 13. ]
      - [ 4., 3., 2., 1., 1., 1., 1., 0., 1., 1., 0., 0., 1., 1., 2., 2.,
          3., 11., 14., 20., 16., 17., 17., 18., 18., 18., 18., 18., 18.,
          19., 18., 18., 18., 17., 17., 17., 16., 15., 14., 0., 7., 3.,
          2., 1., 0., 0., 10., 8., 7., 7., 7., 11., 12., 12., 0., 0., 0.,
          1., 3., 9., 11., 13., 15., 16., 16., 16., 16., 15., 15., 15.,
          16., 17., 17., 17., 18., 17., 16., 15., 12., 9. ]
      - [ 20., 5., 4., 4., 3., 3., 2., 2., 2., 2., 2., 2., 3., 3., 4.,
          5., 20., 20., 20., 20., 0., 16., 17., 17., 18., 18., 18., 18.,
          18., 18., 18., 18., 17., 17., 17., 16., 0., 0., 0., 0., 20.,
          20., 6., 4., 2., 1., 1., 11., 9., 8., 8., 11., 12., 12., 1.,
          1., 1., 2., 4., 20., 0., 0., 11., 13., 14., 15., 15., 14., 14.,
          13., 13., 14., 15., 15., 15., 15., 15., 14., 11., 0. ]
      - [ 20., 6., 5., 5., 4., 4., 4., 4., 3., 3., 3., 4., 4., 4., 4.,
          5., 14., 14., 20., 20., 0., 17., 18., 18., 19., 19., 19., 19.,
          19., 19., 19., 19., 19., 19., 18., 17., 15., 15., 0., 0., 20.,
          20., 20., 8., 4., 2., 1., 1., 11., 9., 8., 8., 8., 12., 12.,
          12., 1., 1., 2., 4., 0., 0., 0., 10., 14., 15., 15., 15., 15.,
          14., 13., 13., 14., 15., 17., 17., 15., 15., 14., 13. ]
      - [ 20., 14., 4., 4., 3., 2., 2., 2., 2., 2., 2., 2., 2., 2., 2.,
          4., 5., 5., 20., 20., 0., 15., 17., 17., 18., 18., 18., 18.,
          19., 19., 19., 18., 18., 18., 17., 16., 16., 16., 0., 0., 20.,
          20., 5., 4., 2., 2., 2., 11., 9., 8., 8., 12., 12., 14., 1.,
          1., 2., 2., 4., 8., 0., 0., 14., 14., 15., 17., 17., 15., 14.,
          14., 14., 15., 17., 17., 17., 17., 17., 14., 13., 10. ]
      - [ 20., 5., 4., 4., 3., 3., 3., 3., 3., 3., 3., 3., 4., 4., 4.,
          5., 13., 13., 20., 20., 0., 16., 17., 17., 18., 19., 19., 19.,
          19., 19., 19., 19., 18., 18., 17., 17., 15., 15., 0., 0., 20.,
          20., 20., 4., 2., 1., 1., 11., 11., 8., 8., 8., 12., 12., 12.,
          1., 1., 2., 4., 5., 0., 0., 0., 11., 14., 15., 15., 15., 14.,
          14., 13., 13., 15., 17., 17., 17., 15., 15., 13., 11. ]
      - [ 2., 1., 0., 0., 0., 0., 0., 0., 0., 0., 0., 0., 0., 0., 0., 1.,
          2., 9., 11., 20., 15., 14., 15., 15., 16., 16., 16., 16., 16.,
          16., 16., 16., 16., 15., 15., 14., 14., 13., 12., 0., 2., 1.,
          0., 0., 11., 10., 7., 7., 6., 12., 12., 1., 0., 0., 1., 0., 4.,
          20., 20., 20., 14., 15., 16., 16., 16., 15., 13., 14., 15.,
          17., 17., 18., 18., 17., 16., 14., 12., 0., 0., 0. ]
      - [ 2., 1., 0., 0., 0., 0., 0., 0., 0., 0., 0., 0., 0., 0., 0., 0.,
          1., 8., 20., 20., 13., 14., 15., 15., 15., 16., 16., 16., 16.,
          16., 16., 16., 15., 15., 15., 14., 14., 12., 0., 0., 2., 1.,
          0., 11., 11., 7., 7., 6., 11., 12., 12., 0., 0., 0., 1., 2.,
          5., 20., 20., 20., 15., 16., 16., 16., 15., 15., 13., 15., 17.,
          17., 17., 17., 17., 16., 16., 14., 11., 0., 0., 0. ]
      - [ 12., 2., 1., 0., 0., 0., 0., 0., 0., 0., 0., 0., 0., 0., 1.,
          1., 2., 10., 12., 20., 13., 15., 15., 15., 16., 16., 16., 16.,
          16., 16., 16., 16., 16., 16., 15., 15., 14., 13., 12., 0., 3.,
          2., 1., 1., 11., 10., 7., 7., 7., 11., 12., 13., 0., 0., 1.,
          1., 4., 20., 20., 20., 13., 15., 16., 16., 16., 15., 14., 12.,
          14., 16., 17., 17., 18., 17., 16., 15., 13., 0., 0., 0. ]
      - [ 3., 2., 1., 1., 0., 0., 0., 0., 0., 0., 0., 0., 0., 0., 1., 1.,
          2., 3., 11., 20., 15., 16., 16., 17., 17., 17., 17., 17., 17.,
          18., 17., 17., 17., 17., 17., 16., 16., 14., 13., 0., 4., 2.,
          1., 0., 0., 11., 9., 7., 7., 7., 11., 12., 12., 0., 0., 0., 1.,
          3., 9., 20., 13., 15., 16., 17., 17., 16., 16., 15., 15., 16.,
          17., 18., 18., 18., 17., 16., 16., 14., 9., 0. ]
      - [ 12., 3., 2., 1., 1., 0., 0., 0., 0., 0., 0., 0., 0., 1., 1.,
          2., 3., 10., 15., 20., 13., 16., 19., 16., 19., 16., 19., 17.,
          17., 17., 16., 17., 16., 16., 16., 19., 15., 13., 15., 0., 5.,
          3., 2., 1., 3., 12., 10., 8., 7., 7., 12., 12., 0., 0., 1., 1.,
          1., 7., 20., 2., 12., 14., 15., 16., 16., 15., 15., 14., 14.,
          16., 17., 17., 17., 17., 16., 18., 14., 11., 0., 15. ]
      - [ 3., 2., 2., 1., 1., 0., 0., 0., 0., 0., 0., 0., 1., 1., 2., 2.,
          4., 11., 12., 20., 14., 15., 16., 16., 17., 17., 17., 17., 18.,
          18., 17., 17., 17., 17., 17., 16., 15., 15., 12., 0., 5., 3.,
          1., 0., 0., 11., 10., 7., 7., 7., 12., 12., 13., 0., 0., 1.,
          2., 4., 8., 20., 11., 13., 15., 15., 16., 16., 15., 14., 13.,
          15., 16., 17., 18., 17., 17., 17., 15., 14., 9., 0. ]
      - [ 12., 2., 1., 0., 0., 0., 0., 0., 0., 0., 0., 0., 0., 0., 1.,
          1., 3., 10., 12., 20., 13., 15., 15., 16., 16., 16., 17., 17.,
          17., 17., 17., 17., 16., 16., 16., 15., 15., 13., 12., 0., 3.,
          2., 1., 1., 3., 11., 8., 7., 7., 11., 12., 13., 0., 0., 1., 1.,
          3., 6., 20., 20., 13., 15., 15., 16., 16., 15., 15., 13., 15.,
          16., 17., 17., 18., 17., 16., 16., 14., 11., 0., 0. ]
      - [ 13., 2., 1., 1., 0., 0., 0., 0., 0., 0., 0., 0., 0., 0., 1.,
          2., 2., 4., 11., 20., 14., 15., 16., 16., 17., 17., 17., 17.,
          17., 17., 17., 17., 17., 17., 16., 16., 15., 14., 13., 0., 4.,
          2., 1., 1., 1., 11., 10., 7., 7., 10., 12., 13., 13., 0., 0.,
          1., 2., 4., 20., 20., 13., 14., 16., 16., 17., 15., 15., 14.,
          13., 15., 17., 18., 18., 18., 17., 16., 15., 13., 0., 0. ]
      - [ 14., 3., 3., 2., 1., 1., 1., 0., 1., 1., 1., 1., 1., 1., 2.,
          3., 3., 11., 20., 20., 14., 15., 16., 16., 17., 17., 17., 17.,
          17., 17., 17., 17., 17., 17., 16., 16., 15., 14., 0., 0., 7.,
          4., 3., 1., 1., 1., 10., 8., 7., 7., 9., 12., 12., 1., 0., 1.,
          2., 4., 20., 20., 7., 13., 14., 16., 16., 16., 16., 15., 15.,
          15., 16., 17., 17., 17., 17., 16., 15., 13., 0., 0. ]
      - [ 4., 2., 2., 1., 1., 1., 1., 1., 1., 1., 1., 1., 1., 1., 2., 2.,
          3., 5., 12., 20., 16., 16., 17., 17., 18., 18., 18., 18., 18.,
          18., 18., 18., 18., 17., 17., 17., 16., 15., 14., 0., 20., 3.,
          1., 1., 0., 0., 11., 8., 7., 7., 7., 12., 12., 3., 0., 0., 0.,
          2., 4., 20., 0., 13., 15., 16., 16., 17., 16., 15., 14., 14.,
          16., 17., 18., 18., 18., 17., 16., 15., 12., 0. ]
      - [ 14., 13., 12., 11., 10., 9., 8., 7., 6., 6., 4., 3., 3., 3.,
          3., 3., 3., 14., 14., 14., 16., 16., 16., 16., 16., 16., 16.,
          16., 16., 16., 17., 19., 19., 19., 19., 19., 19., 16., 16.,
          15., 20., 20., 20., 11., 10., 10., 8., 7., 6., 5., 4., 3., 2.,
          1., 0., 0., 0., 10., 11., 11., 0., 0., 0., 16., 16., 16., 16.,
          16., 16., 16., 16., 16., 16., 16., 19., 19., 18., 16., 16.,
          16. ]
      - [ 10., 9., 8., 6., 5., 5., 3., 3., 2., 1., 0., 0., 0., 0., 0.,
          0., 10., 10., 10., 20., 13., 13., 13., 13., 13., 13., 13., 13.,
          13., 13., 13., 16., 16., 17., 16., 16., 16., 13., 13., 0., 10.,
          9., 8., 6., 6., 4., 3., 3., 2., 1., 0., 0., 0., 0., 11., 11.,
          11., 13., 20., 20., 15., 15., 15., 15., 15., 15., 15., 15.,
          15., 15., 18., 18., 18., 18., 15., 16., 16., 13., 0., 0. ]
      - [ 11., 10., 9., 8., 7., 6., 6., 4., 3., 2., 1., 1., 1., 1., 1.,
          1., 2., 12., 13., 20., 15., 15., 14., 15., 14., 14., 15., 15.,
          15., 17., 18., 18., 18., 18., 18., 18., 15., 15., 14., 0., 20.,
          10., 9., 8., 7., 7., 5., 4., 3., 2., 1., 0., 0., 0., 0., 0.,
          10., 9., 10., 20., 0., 15., 16., 16., 15., 15., 15., 15., 15.,
          15., 15., 15., 17., 18., 18., 17., 15., 15., 15., 0. ]
      - [ 10., 9., 9., 7., 6., 5., 4., 3., 2., 1., 1., 0., 0., 0., 0.,
          0., 11., 11., 11., 11., 13., 13., 13., 13., 13., 13., 13., 13.,
          13., 13., 13., 16., 17., 16., 17., 16., 13., 13., 13., 13.,
          11., 9., 8., 7., 6., 5., 4., 3., 3., 1., 0., 0., 0., 0., 11.,
          11., 11., 12., 20., 20., 15., 14., 14., 14., 14., 14., 15.,
          15., 14., 14., 15., 19., 19., 19., 14., 15., 15., 14., 0., 0. ]
      - [ 11., 10., 9., 9., 7., 7., 6., 4., 3., 2., 2., 1., 1., 1., 1.,
          1., 2., 13., 13., 20., 15., 15., 15., 15., 15., 15., 15., 15.,
          16., 17., 19., 19., 19., 19., 19., 18., 17., 15., 15., 0., 20.,
          11., 9., 8., 7., 7., 6., 4., 4., 2., 1., 0., 0., 0., 0., 0.,
          8., 9., 10., 10., 0., 15., 16., 15., 15., 15., 15., 15., 15.,
          15., 15., 15., 16., 18., 18., 18., 16., 16., 15., 14. ]
      - [ 9., 8., 6., 6., 5., 4., 3., 2., 1., 0., 0., 0., 0., 0., 0., 0.,
          10., 10., 10., 20., 12., 12., 12., 12., 12., 12., 12., 12.,
          12., 12., 14., 16., 16., 16., 16., 16., 12., 12., 12., 0., 9.,
          8., 7., 6., 5., 4., 2., 2., 1., 0., 0., 0., 0., 10., 10., 11.,
          11., 20., 20., 20., 15., 15., 15., 14., 15., 15., 15., 15.,
          15., 15., 18., 18., 18., 15., 15., 15., 15., 0., 0., 0. ]
      - [ 10., 9., 8., 7., 6., 5., 4., 3., 2., 1., 0., 0., 0., 0., 0.,
          0., 11., 11., 11., 11., 13., 13., 13., 13., 13., 13., 13., 13.,
          14., 14., 17., 17., 17., 17., 17., 17., 14., 14., 13., 13.,
          10., 9., 8., 7., 6., 5., 4., 3., 2., 1., 0., 0., 0., 0., 8.,
          10., 10., 10., 20., 20., 15., 15., 15., 15., 15., 15., 15.,
          15., 15., 15., 15., 19., 19., 19., 17., 15., 15., 15., 0., 0. ]
      - [ 12., 10., 11., 0., 8., 0., 6., 0., 4., 3., 3., 2., 2., 2., 2.,
          3., 0., 12., 13., 20., 15., 19., 15., 18., 15., 14., 14., 14.,
          14., 14., 16., 17., 17., 17., 18., 15., 14., 14., 14., 0., 3.,
          20., 11., 9., 8., 8., 6., 5., 4., 3., 1., 1., 0., 0., 0., 0.,
          10., 11., 1., 1., 16., 0., 14., 15., 15., 15., 15., 14., 14.,
          14., 14., 14., 17., 18., 18., 15., 14., 14., 14., 1. ]
      - [ 20., 13., 12., 11., 11., 10., 9., 8., 7., 6., 5., 4., 3., 3.,
          3., 3., 4., 13., 14., 14., 0., 15., 16., 16., 16., 16., 16.,
          16., 16., 16., 16., 19., 19., 19., 19., 19., 19., 16., 16.,
          15., 20., 20., 20., 12., 11., 10., 9., 8., 7., 6., 5., 3., 2.,
          1., 1., 1., 2., 11., 11., 11., 0., 0., 0., 15., 16., 16., 16.,
          16., 16., 16., 16., 16., 16., 17., 19., 19., 18., 16., 16.,
          16. ]
      - [ 10., 9., 7., 7., 6., 4., 3., 2., 1., 0., 0., 0., 0., 0., 0.,
          0., 11., 11., 11., 12., 14., 14., 14., 14., 14., 14., 14., 14.,
          14., 14., 14., 17., 18., 17., 18., 18., 18., 14., 14., 14., 9.,
          8., 7., 6., 5., 5., 4., 2., 2., 1., 0., 0., 0., 0., 0., 11.,
          11., 11., 12., 20., 15., 15., 15., 15., 15., 15., 15., 15.,
          15., 15., 15., 18., 19., 19., 19., 16., 16., 16., 16., 0. ]
      - [ 20., 13., 13., 13., 11., 10., 8., 8., 7., 7., 7., 5., 5., 5.,
          5., 14., 14., 14., 20., 20., 0., 16., 16., 16., 16., 16., 16.,
          16., 16., 17., 17., 19., 19., 19., 19., 17., 16., 16., 0., 0.,
          20., 20., 20., 20., 20., 11., 11., 8., 6., 6., 5., 4., 4., 1.,
          1., 1., 1., 9., 11., 11., 0., 0., 0., 0., 0., 14., 14., 14.,
          14., 14., 14., 14., 14., 14., 17., 17., 17., 15., 14., 14. ]
      - [ 11., 11., 10., 8., 8., 7., 6., 5., 4., 3., 1., 2., 1., 2., 1.,
          6., 13., 12., 13., 13., 14., 14., 14., 14., 14., 14., 14., 14.,
          14., 14., 18., 17., 18., 17., 18., 15., 14., 14., 14., 13.,
          20., 10., 10., 9., 8., 7., 6., 5., 3., 3., 2., 0., 0., 0., 0.,
          10., 10., 10., 10., 20., 0., 14., 14., 14., 14., 14., 15., 15.,
          14., 14., 14., 14., 17., 19., 18., 15., 14., 14., 14., 0. ]
      - [ 13., 11., 10., 10., 8., 7., 6., 6., 5., 3., 3., 2., 2., 2., 2.,
          13., 13., 13., 20., 20., 14., 14., 14., 14., 14., 14., 14.,
          14., 14., 15., 15., 18., 18., 18., 18., 15., 14., 14., 0., 0.,
          20., 20., 11., 9., 9., 8., 6., 5., 4., 4., 2., 1., 1., 0., 0.,
          9., 11., 11., 11., 20., 0., 0., 14., 14., 14., 14., 14., 14.,
          14., 14., 14., 14., 14., 17., 17., 15., 14., 14., 14., 0. ]
      - [ 9., 8., 7., 6., 5., 4., 3., 2., 2., 1., 0., 0., 0., 0., 0., 4.,
          10., 10., 10., 20., 12., 12., 12., 12., 12., 12., 12., 12.,
          12., 12., 13., 16., 16., 16., 16., 16., 12., 12., 12., 0., 10.,
          9., 7., 6., 5., 4., 3., 2., 1., 0., 0., 0., 0., 10., 11., 11.,
          11., 20., 20., 20., 14., 14., 14., 14., 15., 15., 14., 14.,
          14., 15., 18., 18., 18., 15., 15., 15., 15., 0., 0., 0. ]
      - [ 9., 8., 7., 6., 5., 4., 3., 2., 2., 0., 0., 0., 0., 0., 0., 0.,
          10., 10., 10., 20., 12., 12., 12., 12., 12., 12., 12., 12.,
          12., 12., 15., 16., 16., 16., 15., 15., 12., 12., 12., 0., 9.,
          9., 7., 6., 5., 4., 3., 2., 1., 0., 0., 0., 0., 10., 10., 10.,
          11., 20., 20., 20., 15., 14., 15., 14., 14., 14., 14., 15.,
          15., 15., 18., 18., 18., 15., 15., 15., 13., 0., 0., 0. ]
      - [ 9., 8., 7., 6., 5., 4., 3., 2., 1., 0., 0., 0., 0., 0., 0., 0.,
          10., 10., 10., 10., 12., 12., 12., 12., 12., 12., 12., 12.,
          12., 13., 12., 16., 16., 16., 16., 16., 16., 12., 12., 13., 9.,
          8., 7., 6., 5., 4., 3., 2., 1., 0., 0., 0., 0., 9., 11., 11.,
          11., 20., 20., 20., 15., 15., 15., 15., 15., 15., 15., 15.,
          15., 15., 19., 19., 19., 19., 15., 16., 16., 0., 0., 0. ]
      - [ 11., 10., 9., 8., 7., 6., 6., 4., 3., 2., 1., 1., 1., 1., 1.,
          1., 2., 12., 12., 20., 15., 14., 14., 14., 14., 15., 14., 14.,
          15., 15., 18., 18., 18., 18., 18., 18., 15., 15., 14., 0., 20.,
          10., 9., 8., 7., 7., 5., 4., 3., 2., 1., 0., 0., 0., 0., 0.,
          10., 10., 10., 20., 0., 15., 16., 15., 15., 15., 15., 15., 15.,
          15., 15., 15., 18., 18., 18., 17., 15., 15., 15., 0. ]
      - [ 8., 8., 6., 6., 5., 4., 2., 2., 1., 0., 0., 0., 0., 0., 0., 0.,
          10., 10., 10., 10., 12., 12., 12., 12., 12., 12., 12., 12.,
          12., 12., 15., 16., 16., 16., 16., 16., 12., 12., 12., 12., 9.,
          8., 6., 6., 5., 4., 2., 2., 0., 0., 0., 0., 0., 10., 11., 10.,
          11., 20., 20., 20., 15., 15., 15., 15., 15., 15., 15., 15.,
          15., 15., 19., 19., 19., 15., 15., 15., 15., 0., 0., 0. ]
      - [ 10., 9., 8., 7., 6., 5., 4., 3., 2., 1., 1., 0., 0., 0., 0.,
          6., 10., 11., 10., 20., 12., 12., 12., 12., 13., 18., 12., 12.,
          13., 12., 13., 16., 16., 16., 16., 16., 12., 12., 12., 0., 11.,
          9., 8., 7., 6., 5., 4., 3., 2., 1., 0., 0., 0., 4., 11., 11.,
          11., 20., 5., 20., 14., 14., 14., 14., 14., 14., 15., 15., 15.,
          15., 18., 18., 18., 15., 15., 15., 15., 0., 5., 0. ]
      - [ 20., 11., 10., 10., 8., 7., 6., 6., 5., 3., 3., 1., 1., 1., 1.,
          2., 12., 12., 13., 20., 0., 13., 13., 13., 13., 13., 13., 13.,
          14., 14., 14., 17., 17., 17., 17., 14., 14., 14., 13., 0., 20.,
          11., 11., 9., 9., 8., 6., 5., 4., 4., 2., 1., 1., 1., 8., 11.,
          11., 11., 20., 20., 0., 14., 15., 15., 15., 15., 15., 15., 14.,
          14., 14., 14., 17., 18., 17., 14., 14., 14., 0., 0. ]
      - [ 9., 8., 7., 6., 5., 4., 3., 2., 1., 0., 0., 0., 0., 0., 0., 0.,
          10., 10., 10., 20., 12., 13., 13., 13., 13., 12., 13., 13.,
          13., 14., 16., 16., 16., 16., 16., 15., 13., 13., 12., 0., 9.,
          8., 7., 6., 5., 4., 3., 2., 1., 0., 0., 0., 0., 1., 9., 10.,
          10., 20., 20., 20., 15., 15., 15., 15., 15., 15., 15., 15.,
          15., 15., 18., 18., 18., 17., 15., 15., 14., 0., 0., 0. ]
      - [ 15., 9., 3., 2., 1., 1., 2., 1., 1., 1., 1., 1., 1., 1., 1.,
          1., 1., 2., 2., 13., 16., 17., 18., 18., 18., 19., 19., 19.,
          19., 19., 19., 19., 19., 19., 18., 18., 18., 17., 16., 13.,
          20., 4., 3., 2., 2., 2., 2., 2., 2., 1., 1., 12., 13., 13., 4.,
          0., 0., 1., 2., 5., 0., 16., 18., 18., 18., 8., 7., 13., 15.,
          17., 18., 18., 18., 19., 18., 18., 18., 17., 16., 13. ]
      - [ 20., 20., 15., 15., 5., 3., 2., 2., 2., 2., 2., 2., 2., 2., 2.,
          2., 2., 2., 3., 20., 0., 0., 16., 16., 17., 18., 18., 18., 19.,
          19., 19., 19., 18., 18., 18., 18., 17., 17., 15., 0., 20., 20.,
          6., 5., 5., 4., 4., 4., 4., 4., 4., 15., 15., 15., 15., 2., 2.,
          4., 5., 8., 0., 0., 17., 18., 18., 8., 8., 10., 15., 17., 17.,
          18., 18., 18., 18., 18., 17., 17., 15., 11. ]
      - [ 20., 0., 9., 0., 4., 0., 0., 0., 0., 0., 0., 0., 0., 0., 0.,
          0., 0., 0., 0., 0., 0., 16., 17., 18., 18., 19., 19., 19., 19.,
          19., 19., 19., 19., 19., 19., 18., 18., 16., 0., 0., 1., 20.,
          20., 20., 4., 4., 3., 3., 3., 2., 2., 2., 2., 13., 13., 13.,
          1., 2., 3., 5., 19., 0., 0., 0., 16., 16., 16., 7., 7., 12.,
          14., 16., 17., 17., 17., 17., 17., 16., 16., 14. ]
      - [ 20., 2., 5., 1., 1., 0., 0., 0., 0., 1., 0., 1., 0., 1., 0.,
          1., 0., 9., 10., 20., 0., 13., 14., 15., 15., 16., 16., 17.,
          16., 17., 16., 17., 16., 16., 16., 15., 15., 14., 12., 0., 5.,
          3., 1., 3., 3., 2., 2., 2., 2., 3., 13., 14., 2., 1., 2., 3.,
          5., 7., 20., 20., 16., 16., 16., 16., 7., 7., 13., 16., 16.,
          17., 18., 18., 18., 17., 17., 16., 14., 11., 0., 0. ]
      - [ 20., 7., 1., 0., 0., 0., 0., 0., 0., 0., 0., 0., 0., 0., 0.,
          0., 0., 0., 8., 9., 0., 13., 15., 15., 16., 16., 16., 16., 16.,
          16., 16., 17., 16., 16., 16., 15., 15., 14., 13., 11., 3., 2.,
          2., 2., 2., 2., 2., 1., 1., 13., 14., 14., 1., 1., 2., 2., 4.,
          11., 20., 20., 17., 16., 16., 6., 6., 13., 16., 17., 18., 19.,
          19., 19., 18., 18., 17., 16., 14., 11., 0., 0. ]
      - [ 20., 12., 4., 1., 0., 0., 0., 0., 0., 0., 0., 0., 0., 0., 0.,
          0., 0., 0., 8., 20., 0., 13., 14., 14., 15., 15., 16., 16.,
          16., 16., 16., 16., 16., 16., 15., 15., 14., 13., 13., 0., 4.,
          3., 3., 3., 2., 2., 2., 2., 3., 13., 13., 4., 1., 1., 2., 4.,
          6., 20., 20., 20., 17., 17., 7., 7., 7., 14., 16., 17., 18.,
          18., 18., 18., 18., 18., 16., 15., 13., 0., 0., 0. ]
      - [ 20., 12., 4., 1., 0., 0., 0., 0., 0., 0., 0., 0., 0., 0., 0.,
          0., 0., 0., 8., 10., 0., 13., 14., 15., 15., 15., 16., 16.,
          16., 16., 16., 16., 16., 16., 15., 15., 14., 14., 13., 11., 4.,
          3., 3., 3., 2., 2., 2., 2., 3., 13., 13., 4., 1., 1., 2., 3.,
          6., 20., 20., 20., 17., 17., 8., 7., 7., 14., 16., 17., 18.,
          18., 19., 19., 18., 18., 17., 15., 13., 0., 0., 0. ]
      - [ 16., 10., 6., 4., 3., 2., 2., 2., 2., 2., 2., 2., 2., 2., 2.,
          2., 2., 2., 3., 14., 16., 17., 18., 18., 19., 19., 19., 19.,
          19., 19., 19., 19., 19., 19., 18., 18., 18., 17., 16., 14.,
          20., 20., 5., 4., 3., 3., 2., 2., 2., 2., 1., 1., 13., 13.,
          13., 1., 0., 1., 2., 4., 0., 0., 17., 18., 18., 17., 8., 8.,
          13., 15., 17., 18., 18., 18., 19., 18., 18., 17., 16., 13. ]
      - [ 13., 7., 4., 0., 0., 0., 0., 0., 0., 0., 0., 0., 0., 0., 0.,
          0., 0., 0., 8., 20., 13., 14., 15., 15., 16., 16., 16., 17.,
          16., 17., 16., 17., 16., 16., 16., 15., 15., 14., 12., 0., 3.,
          3., 3., 3., 2., 2., 2., 1., 1., 13., 13., 13., 1., 0., 1., 2.,
          4., 7., 20., 20., 17., 17., 17., 7., 7., 13., 15., 16., 18.,
          18., 18., 18., 18., 17., 17., 16., 14., 11., 0., 0. ]
      - [ 0., 0., 0., 0., 0., 0., 0., 0., 0., 0., 4., 4., 0., 0., 4., 4.,
          12., 15., 0., 0., 0., 17., 18., 19., 19., 19., 19., 19., 19.,
          19., 19., 19., 19., 19., 19., 18., 17., 16., 0., 0., 0., 20.,
          20., 20., 3., 3., 3., 2., 2., 2., 1., 1., 1., 12., 12., 12.,
          1., 1., 2., 3., 19., 0., 0., 0., 15., 15., 15., 6., 6., 11.,
          14., 15., 16., 16., 16., 17., 17., 16., 15., 14. ]
      - [ 20., 14., 7., 4., 2., 1., 1., 1., 1., 1., 1., 1., 1., 1., 1.,
          1., 1., 1., 1., 20., 0., 14., 16., 16., 17., 17., 17., 17.,
          17., 17., 17., 17., 17., 17., 17., 16., 16., 15., 13., 0., 20.,
          5., 4., 4., 3., 3., 3., 2., 2., 2., 13., 13., 13., 2., 1., 2.,
          2., 4., 20., 20., 0., 18., 18., 18., 17., 7., 11., 15., 16.,
          17., 18., 18., 18., 18., 17., 17., 16., 14., 0., 0. ]
      - [ 20., 14., 7., 3., 2., 2., 2., 2., 2., 2., 2., 2., 2., 2., 2.,
          2., 2., 2., 12., 20., 0., 15., 16., 17., 17., 17., 18., 18.,
          18., 18., 18., 18., 18., 18., 17., 17., 16., 16., 14., 0., 20.,
          20., 4., 3., 3., 3., 3., 2., 2., 2., 2., 12., 13., 13., 1., 1.,
          2., 3., 6., 20., 0., 0., 17., 17., 17., 16., 8., 13., 15., 16.,
          17., 17., 18., 18., 18., 17., 17., 15., 13., 0. ]
      - [ 20., 15., 6., 2., 2., 2., 2., 2., 2., 2., 2., 2., 2., 2., 2.,
          2., 2., 2., 12., 20., 0., 16., 16., 17., 18., 18., 18., 18.,
          18., 19., 18., 18., 18., 18., 18., 17., 16., 16., 14., 0., 20.,
          20., 3., 3., 3., 3., 2., 2., 2., 2., 2., 4., 13., 13., 2., 1.,
          1., 3., 4., 9., 0., 0., 17., 17., 17., 16., 8., 10., 15., 16.,
          17., 17., 18., 18., 18., 17., 17., 15., 14., 9. ]
      - [ 14., 8., 5., 2., 1., 1., 1., 1., 1., 1., 1., 1., 1., 1., 1.,
          1., 1., 1., 10., 20., 15., 15., 16., 16., 17., 17., 17., 18.,
          18., 18., 18., 18., 17., 17., 17., 16., 16., 15., 13., 0., 20.,
          4., 3., 3., 3., 2., 2., 2., 1., 1., 4., 13., 13., 1., 0., 0.,
          2., 4., 7., 20., 0., 17., 17., 17., 7., 7., 11., 14., 16., 17.,
          18., 18., 18., 18., 17., 17., 16., 14., 11., 0. ]
      - [ 20., 20., 16., 16., 6., 4., 4., 4., 4., 4., 4., 4., 4., 4., 4.,
          4., 4., 4., 13., 20., 0., 0., 17., 17., 18., 19., 19., 19.,
          19., 19., 19., 19., 19., 19., 19., 18., 17., 17., 15., 0., 20.,
          20., 20., 20., 5., 5., 4., 4., 4., 4., 4., 4., 4., 14., 14.,
          14., 2., 2., 4., 5., 0., 0., 0., 0., 17., 17., 17., 7., 7.,
          14., 15., 17., 17., 18., 18., 18., 17., 17., 15., 14. ]
      - [ 20., 20., 10., 10., 5., 4., 4., 4., 4., 4., 4., 4., 4., 4., 4.,
          4., 4., 4., 20., 20., 0., 0., 17., 17., 18., 19., 19., 19.,
          19., 19., 19., 19., 19., 19., 19., 18., 16., 16., 0., 0., 20.,
          20., 20., 20., 5., 4., 4., 4., 4., 4., 2., 2., 2., 14., 14.,
          14., 2., 2., 4., 5., 0., 0., 0., 0., 17., 17., 15., 7., 7.,
          13., 15., 15., 17., 17., 17., 17., 17., 15., 15., 14. ]
      - [ 13., 13., 5., 0., 0., 0., 0., 0., 0., 0., 0., 0., 0., 0., 0.,
          0., 0., 0., 8., 10., 13., 14., 15., 15., 16., 16., 16., 16.,
          17., 17., 17., 17., 16., 17., 17., 16., 15., 14., 14., 13., 3.,
          3., 3., 3., 3., 2., 2., 2., 2., 4., 14., 14., 4., 0., 1., 2.,
          4., 8., 20., 20., 17., 17., 17., 6., 6., 11., 15., 17., 18.,
          18., 19., 19., 19., 19., 18., 16., 15., 14., 0., 0. ]
      - [ 16., 8., 5., 3., 3., 3., 3., 3., 3., 3., 3., 3., 3., 3., 3.,
          3., 3., 12., 20., 20., 16., 17., 18., 18., 19., 19., 19., 19.,
          19., 19., 19., 19., 19., 19., 19., 18., 18., 17., 0., 0., 20.,
          20., 20., 3., 3., 2., 2., 2., 1., 1., 1., 1., 2., 13., 13., 4.,
          0., 1., 2., 4., 0., 0., 0., 16., 16., 16., 15., 6., 5., 13.,
          15., 16., 17., 17., 17., 17., 17., 17., 16., 14. ]
      - [ 20., 13., 1., 4., 1., 2., 1., 2., 1., 2., 1., 2., 1., 1., 1.,
          1., 2., 1., 12., 20., 0., 13., 15., 16., 16., 16., 19., 17.,
          19., 17., 19., 17., 17., 17., 16., 16., 15., 14., 14., 0., 20.,
          2., 4., 4., 3., 3., 3., 3., 2., 2., 13., 13., 14., 1., 2., 2.,
          3., 6., 6., 6., 0., 17., 17., 17., 7., 7., 11., 14., 16., 17.,
          17., 17., 18., 18., 18., 16., 15., 13., 10., 10. ]
      - [ 8., 4., 3., 3., 3., 3., 3., 3., 3., 3., 3., 3., 3., 3., 3., 3.,
          12., 20., 20., 20., 17., 18., 18., 19., 19., 19., 19., 19.,
          19., 19., 19., 19., 18., 18., 18., 17., 15., 0., 0., 0., 20.,
          20., 20., 2., 1., 1., 1., 1., 0., 0., 0., 0., 11., 12., 12.,
          0., 0., 0., 1., 3., 0., 0., 0., 15., 15., 15., 5., 5., 8., 13.,
          14., 15., 16., 16., 16., 16., 15., 15., 14., 11. ]
      - [ 20., 8., 5., 1., 1., 1., 1., 1., 1., 1., 1., 1., 1., 1., 1.,
          1., 1., 2., 2., 20., 0., 15., 16., 16., 17., 17., 17., 17.,
          17., 18., 18., 17., 17., 17., 17., 16., 16., 15., 12., 0., 20.,
          3., 3., 3., 3., 2., 2., 2., 1., 2., 4., 12., 13., 2., 1., 1.,
          2., 4., 9., 20., 0., 16., 18., 17., 17., 8., 12., 14., 16.,
          17., 18., 18., 18., 17., 17., 17., 16., 14., 10., 0. ]
      - [ 20., 8., 6., 2., 1., 1., 1., 1., 1., 1., 1., 1., 1., 1., 1.,
          1., 1., 1., 2., 13., 0., 16., 17., 17., 18., 18., 18., 18.,
          18., 18., 18., 18., 18., 18., 18., 17., 17., 16., 15., 13.,
          20., 4., 3., 3., 3., 3., 2., 2., 1., 1., 2., 13., 13., 13., 1.,
          1., 1., 2., 4., 20., 0., 17., 18., 17., 17., 8., 8., 13., 16.,
          17., 18., 18., 18., 19., 18., 18., 17., 16., 14., 0. ]
      - [ 13., 8., 6., 1., 0., 0., 0., 0., 0., 0., 0., 0., 0., 0., 0.,
          0., 0., 0., 9., 11., 13., 14., 14., 16., 16., 16., 16., 17.,
          17., 17., 16., 17., 19., 16., 16., 16., 15., 15., 13., 11., 4.,
          3., 3., 3., 3., 3., 2., 2., 1., 13., 13., 14., 4., 0., 1., 3.,
          3., 7., 20., 12., 17., 17., 17., 7., 6., 11., 15., 16., 17.,
          18., 18., 19., 18., 18., 17., 17., 15., 11., 0., 12. ]
      - [ 20., 20., 7., 7., 4., 2., 2., 2., 2., 2., 2., 2., 2., 2., 2.,
          2., 2., 2., 12., 20., 0., 0., 16., 16., 17., 18., 18., 18.,
          18., 18., 18., 18., 18., 18., 18., 17., 16., 16., 14., 0., 20.,
          20., 5., 5., 4., 4., 4., 2., 2., 2., 2., 14., 14., 14., 2., 2.,
          2., 4., 5., 20., 0., 0., 17., 17., 17., 17., 8., 11., 14., 15.,
          17., 17., 18., 18., 18., 17., 17., 15., 14., 0. ]
      - [ 20., 12., 5., 1., 0., 0., 0., 0., 0., 0., 0., 0., 0., 0., 0.,
          0., 0., 0., 8., 9., 0., 13., 14., 15., 15., 16., 16., 16., 16.,
          16., 16., 16., 16., 16., 16., 15., 15., 14., 13., 12., 4., 3.,
          3., 3., 3., 2., 2., 2., 3., 13., 14., 14., 1., 1., 2., 3., 5.,
          20., 20., 20., 17., 17., 8., 7., 7., 14., 16., 17., 18., 19.,
          19., 19., 19., 18., 17., 16., 14., 0., 0., 0. ]
      - [ 20., 7., 4., 2., 1., 1., 0., 0., 0., 0., 0., 0., 0., 0., 0.,
          0., 1., 1., 2., 10., 0., 10., 13., 15., 15., 16., 16., 17.,
          17., 17., 17., 17., 17., 17., 16., 16., 16., 15., 14., 12., 6.,
          4., 3., 3., 2., 2., 2., 1., 1., 1., 1., 2., 2., 2., 3., 3., 5.,
          7., 20., 20., 15., 17., 18., 18., 7., 7., 15., 16., 18., 18.,
          19., 19., 19., 18., 18., 17., 16., 13., 0., 0. ]
      - [ 7., 5., 3., 2., 2., 1., 0., 0., 0., 0., 0., 0., 0., 0., 0., 0.,
          1., 1., 2., 10., 10., 11., 14., 15., 16., 16., 16., 17., 17.,
          17., 17., 17., 17., 17., 17., 17., 16., 16., 15., 14., 6., 5.,
          3., 2., 2., 1., 1., 0., 0., 0., 0., 1., 2., 2., 2., 3., 4., 7.,
          20., 20., 15., 17., 18., 18., 7., 7., 14., 16., 18., 18., 19.,
          19., 19., 19., 19., 18., 17., 15., 0., 0. ]
      - [ 20., 8., 4., 3., 1., 0., 0., 0., 0., 0., 0., 0., 0., 0., 0.,
          0., 0., 1., 2., 10., 0., 9., 12., 13., 14., 15., 15., 15., 16.,
          16., 16., 16., 16., 15., 15., 15., 15., 14., 13., 11., 5., 4.,
          4., 3., 2., 2., 2., 2., 1., 1., 2., 2., 2., 3., 4., 5., 8.,
          20., 20., 20., 16., 17., 18., 16., 6., 12., 16., 17., 18., 18.,
          19., 19., 18., 18., 17., 16., 12., 0., 0., 0. ]
      - [ 20., 5., 2., 1., 0., 0., 0., 0., 0., 0., 0., 0., 0., 0., 0.,
          0., 0., 0., 1., 2., 0., 12., 14., 15., 15., 16., 16., 16., 17.,
          17., 17., 17., 17., 16., 17., 16., 16., 15., 14., 14., 4., 3.,
          2., 2., 2., 1., 1., 1., 1., 1., 1., 1., 1., 2., 2., 3., 5., 8.,
          20., 20., 17., 18., 19., 6., 6., 13., 16., 18., 18., 19., 19.,
          19., 19., 19., 19., 17., 16., 14., 0., 0. ]
      - [ 20., 6., 3., 1., 1., 0., 0., 0., 0., 0., 0., 0., 0., 0., 0.,
          0., 0., 0., 2., 10., 0., 8., 12., 13., 14., 15., 15., 15., 15.,
          16., 16., 16., 16., 16., 15., 15., 15., 15., 13., 11., 5., 3.,
          3., 2., 2., 2., 1., 1., 1., 2., 2., 2., 2., 3., 4., 5., 9.,
          20., 20., 20., 17., 17., 18., 7., 6., 15., 16., 18., 18., 18.,
          19., 19., 18., 18., 17., 17., 13., 0., 0., 0. ]
      - [ 20., 9., 5., 4., 3., 3., 2., 1., 1., 1., 1., 1., 1., 1., 2.,
          2., 2., 3., 4., 20., 0., 10., 14., 15., 16., 17., 17., 17.,
          18., 18., 18., 18., 17., 17., 17., 17., 16., 16., 15., 0., 20.,
          7., 6., 4., 3., 2., 2., 2., 2., 1., 1., 2., 2., 2., 2., 3., 4.,
          5., 8., 20., 0., 13., 16., 17., 18., 17., 7., 13., 15., 17.,
          18., 18., 18., 18., 18., 18., 17., 15., 11., 0. ]
      - [ 20., 20., 20., 20., 6., 4., 3., 3., 3., 2., 2., 2., 2., 2., 2.,
          2., 3., 3., 4., 12., 0., 0., 0., 0., 15., 16., 18., 18., 18.,
          18., 18., 19., 19., 19., 18., 18., 18., 18., 16., 15., 20.,
          20., 9., 6., 5., 5., 4., 4., 4., 4., 4., 4., 4., 4., 4., 4.,
          5., 6., 6., 11., 0., 0., 15., 17., 18., 18., 18., 8., 15., 17.,
          18., 18., 19., 19., 19., 19., 18., 17., 17., 13. ]
      - [ 20., 20., 20., 20., 7., 5., 4., 4., 3., 3., 3., 2., 2., 2., 2.,
          3., 3., 3., 4., 12., 0., 0., 0., 0., 13., 16., 17., 17., 18.,
          18., 18., 18., 18., 18., 18., 18., 17., 17., 16., 14., 20.,
          20., 11., 8., 6., 5., 5., 4., 4., 4., 4., 4., 4., 4., 5., 5.,
          5., 6., 8., 20., 0., 0., 14., 17., 18., 18., 18., 8., 14., 17.,
          18., 18., 19., 19., 19., 18., 18., 17., 15., 0. ]
      - [ 20., 6., 4., 2., 2., 1., 0., 0., 0., 0., 0., 0., 0., 0., 0.,
          0., 1., 2., 9., 9., 0., 9., 12., 14., 15., 15., 16., 16., 16.,
          16., 16., 16., 16., 16., 16., 16., 15., 15., 14., 12., 6., 5.,
          3., 3., 2., 2., 1., 1., 1., 1., 2., 2., 2., 3., 3., 4., 6.,
          20., 20., 20., 15., 16., 17., 17., 14., 7., 14., 16., 17., 19.,
          19., 19., 19., 18., 18., 17., 15., 0., 0., 0. ]
      - [ 20., 6., 3., 2., 1., 0., 0., 0., 0., 0., 0., 0., 0., 0., 0.,
          0., 0., 1., 2., 11., 0., 10., 13., 14., 15., 16., 16., 16.,
          16., 16., 17., 16., 16., 16., 16., 16., 15., 14., 14., 11., 5.,
          4., 3., 2., 2., 2., 1., 1., 1., 1., 1., 2., 2., 2., 3., 4., 5.,
          10., 20., 20., 16., 17., 18., 17., 6., 12., 15., 17., 18., 18.,
          18., 19., 18., 18., 18., 16., 15., 10., 0., 0. ]
      - [ 20., 9., 6., 4., 3., 2., 2., 1., 1., 1., 1., 1., 1., 1., 1.,
          1., 2., 2., 3., 12., 0., 9., 14., 15., 16., 16., 17., 17., 17.,
          17., 17., 17., 17., 17., 17., 17., 16., 15., 14., 12., 20., 7.,
          5., 4., 3., 3., 2., 2., 2., 1., 2., 2., 2., 2., 2., 3., 4., 6.,
          20., 20., 0., 15., 17., 18., 18., 14., 7., 14., 16., 17., 18.,
          18., 19., 18., 18., 17., 16., 15., 0., 0. ]
      - [ 10., 7., 4., 3., 2., 2., 1., 1., 1., 1., 0., 0., 0., 1., 1.,
          1., 1., 2., 2., 4., 11., 14., 16., 17., 17., 18., 18., 18.,
          18., 18., 19., 19., 18., 18., 18., 18., 17., 17., 16., 15.,
          10., 6., 4., 3., 2., 2., 2., 1., 1., 1., 0., 0., 1., 1., 1.,
          2., 2., 3., 5., 10., 12., 16., 18., 18., 19., 16., 6., 13.,
          16., 17., 18., 19., 19., 19., 19., 19., 18., 17., 15., 11. ]
      - [ 20., 8., 3., 2., 1., 0., 0., 0., 0., 0., 0., 0., 0., 0., 0.,
          0., 0., 1., 8., 10., 0., 9., 12., 13., 14., 15., 15., 16., 16.,
          16., 16., 16., 16., 16., 16., 16., 15., 15., 14., 11., 5., 4.,
          3., 2., 2., 2., 2., 2., 1., 1., 2., 2., 2., 3., 4., 5., 7.,
          20., 20., 20., 16., 17., 17., 16., 6., 12., 16., 17., 18., 18.,
          19., 19., 18., 18., 18., 17., 15., 0., 0., 0. ]
      - [ 20., 8., 4., 4., 3., 2., 1., 1., 1., 1., 0., 1., 0., 1., 1.,
          1., 0., 2., 4., 20., 0., 9., 13., 14., 15., 15., 16., 16., 17.,
          16., 17., 16., 17., 16., 16., 16., 16., 15., 14., 0., 10., 6.,
          5., 4., 2., 2., 2., 2., 1., 1., 2., 2., 2., 2., 3., 4., 6., 8.,
          20., 20., 16., 15., 17., 17., 18., 7., 11., 16., 16., 18., 18.,
          18., 18., 18., 18., 17., 16., 12., 0., 0. ]
      - [ 20., 6., 2., 1., 0., 0., 0., 0., 0., 0., 0., 0., 0., 0., 0.,
          0., 0., 0., 1., 8., 0., 9., 12., 13., 14., 14., 15., 15., 16.,
          16., 16., 16., 16., 16., 15., 15., 15., 14., 13., 12., 4., 3.,
          2., 2., 2., 2., 1., 1., 1., 1., 2., 2., 2., 3., 4., 6., 8.,
          20., 20., 20., 17., 18., 18., 7., 11., 15., 17., 18., 19., 19.,
          19., 19., 19., 18., 17., 16., 13., 0., 0., 0. ]
      - [ 20., 8., 4., 3., 2., 1., 1., 0., 0., 0., 0., 0., 0., 1., 0.,
          1., 1., 2., 9., 11., 0., 9., 12., 14., 14., 15., 15., 16., 16.,
          16., 16., 16., 16., 16., 16., 15., 15., 14., 13., 12., 7., 5.,
          4., 3., 2., 2., 2., 2., 1., 1., 2., 2., 2., 3., 3., 5., 7.,
          20., 20., 20., 14., 16., 17., 17., 7., 6., 14., 16., 17., 18.,
          18., 19., 19., 18., 17., 16., 14., 0., 0., 0. ]
      - [ 20., 8., 5., 4., 3., 2., 2., 2., 1., 1., 1., 1., 1., 1., 1.,
          2., 2., 2., 3., 11., 0., 13., 15., 16., 17., 17., 18., 18.,
          18., 19., 19., 19., 18., 18., 18., 18., 17., 17., 16., 15.,
          20., 8., 5., 4., 3., 2., 2., 2., 1., 1., 1., 1., 1., 1., 2.,
          2., 3., 4., 6., 9., 0., 14., 17., 18., 18., 18., 7., 11., 15.,
          17., 18., 19., 19., 19., 19., 19., 18., 17., 15., 11. ]
      - [ 20., 20., 2., 2., 2., 2., 2., 2., 2., 2., 2., 2., 2., 2., 2.,
          2., 2., 2., 2., 20., 0., 0., 4., 4., 4., 18., 18., 17., 17.,
          17., 14., 12., 10., 9., 7., 7., 6., 5., 4., 0., 20., 20., 2.,
          2., 2., 12., 11., 11., 10., 8., 8., 8., 6., 6., 5., 5., 5., 5.,
          5., 20., 0., 0., 18., 18., 18., 17., 16., 15., 13., 13., 12.,
          11., 11., 10., 10., 9., 9., 9., 6., 0. ]
      - [ 4., 3., 3., 2., 3., 2., 2., 2., 2., 2., 2., 2., 3., 2., 2., 2.,
          2., 2., 2., 3., 4., 5., 6., 5., 19., 19., 19., 19., 19., 19.,
          16., 13., 12., 11., 9., 9., 7., 6., 5., 5., 20., 20., 3., 1.,
          0., 1., 2., 10., 10., 9., 8., 8., 7., 6., 6., 5., 4., 4., 4.,
          4., 0., 0., 18., 19., 19., 19., 17., 16., 15., 15., 13., 13.,
          12., 11., 10., 10., 10., 9., 9., 9. ]
      - [ 20., 0., 0., 0., 0., 0., 0., 0., 0., 0., 0., 0., 0., 0., 0.,
          0., 0., 0., 0., 20., 0., 2., 2., 2., 2., 16., 17., 17., 16.,
          17., 15., 11., 8., 7., 5., 17., 14., 3., 2., 0., 1., 1., 1.,
          13., 11., 11., 10., 9., 8., 8., 7., 7., 6., 5., 5., 5., 5., 6.,
          20., 20., 18., 18., 18., 17., 15., 15., 13., 13., 12., 11.,
          11., 11., 10., 10., 16., 10., 9., 15., 0., 0. ]
      - [ 20., 3., 3., 3., 3., 3., 3., 3., 3., 3., 3., 3., 3., 3., 3.,
          3., 3., 3., 3., 20., 0., 6., 6., 6., 6., 19., 19., 19., 19.,
          19., 18., 14., 12., 10., 9., 8., 7., 6., 5., 0., 20., 20., 20.,
          1., 1., 1., 1., 11., 10., 10., 9., 8., 7., 7., 6., 6., 6., 5.,
          5., 5., 0., 0., 0., 18., 18., 18., 17., 16., 15., 14., 13.,
          12., 12., 11., 11., 10., 10., 10., 10., 9. ]
      - [ 20., 20., 5., 5., 4., 4., 4., 4., 4., 4., 4., 4., 4., 4., 4.,
          4., 4., 4., 4., 5., 0., 0., 6., 6., 6., 19., 19., 19., 19.,
          19., 19., 17., 12., 12., 11., 9., 7., 7., 6., 6., 20., 20.,
          20., 20., 4., 2., 2., 11., 11., 11., 11., 11., 9., 8., 8., 8.,
          6., 6., 6., 5., 0., 0., 0., 0., 18., 19., 19., 17., 15., 15.,
          14., 14., 13., 11., 11., 11., 11., 11., 10., 10. ]
      - [ 20., 3., 3., 3., 2., 2., 2., 2., 2., 2., 2., 2., 2., 2., 2.,
          2., 2., 2., 2., 3., 0., 5., 5., 5., 19., 19., 19., 19., 19.,
          19., 18., 14., 12., 10., 9., 8., 7., 6., 5., 4., 20., 20., 4.,
          1., 1., 1., 6., 10., 9., 8., 8., 7., 7., 6., 6., 5., 4., 4.,
          4., 4., 0., 0., 18., 19., 19., 18., 17., 16., 15., 14., 13.,
          12., 12., 11., 11., 10., 10., 10., 10., 9. ]
      - [ 20., 1., 1., 1., 1., 1., 1., 1., 1., 1., 1., 1., 2., 1., 1.,
          1., 1., 1., 1., 3., 0., 4., 4., 4., 18., 18., 18., 18., 18.,
          18., 18., 15., 11., 9., 8., 7., 6., 5., 4., 3., 20., 1., 1.,
          1., 1., 10., 10., 9., 8., 8., 7., 6., 6., 5., 5., 4., 4., 4.,
          4., 20., 0., 18., 18., 19., 18., 17., 16., 15., 14., 13., 12.,
          12., 11., 11., 11., 11., 10., 10., 10., 0. ]
      - [ 20., 1., 1., 1., 1., 1., 1., 1., 1., 0., 0., 0., 0., 1., 0.,
          1., 0., 1., 1., 20., 0., 2., 3., 3., 16., 16., 16., 16., 16.,
          16., 14., 11., 9., 7., 6., 5., 4., 3., 3., 0., 9., 1., 1., 2.,
          11., 11., 10., 9., 8., 7., 7., 6., 6., 5., 5., 5., 4., 20.,
          20., 20., 16., 18., 18., 18., 16., 15., 14., 13., 12., 12.,
          11., 11., 10., 10., 10., 9., 9., 0., 0., 0. ]
      - [ 20., 20., 1., 1., 1., 1., 1., 1., 1., 1., 1., 1., 1., 1., 1.,
          1., 1., 1., 1., 20., 0., 0., 3., 3., 3., 17., 17., 17., 18.,
          18., 18., 14., 10., 10., 8., 6., 5., 5., 4., 0., 20., 2., 2.,
          2., 12., 12., 12., 11., 11., 9., 8., 8., 8., 6., 6., 5., 5.,
          5., 8., 20., 0., 18., 18., 18., 18., 17., 15., 14., 14., 13.,
          13., 11., 11., 11., 11., 10., 10., 10., 10., 0. ]
      - [ 4., 3., 4., 3., 4., 3., 4., 3., 3., 3., 4., 3., 4., 3., 3., 3.,
          4., 20., 20., 20., 5., 6., 5., 6., 19., 19., 19., 19., 18.,
          15., 12., 11., 9., 8., 7., 6., 5., 0., 0., 0., 20., 20., 20.,
          1., 0., 0., 1., 10., 10., 8., 8., 7., 6., 5., 5., 4., 4., 4.,
          4., 4., 0., 0., 0., 15., 16., 16., 15., 14., 13., 12., 11.,
          11., 10., 9., 9., 9., 8., 8., 8., 7. ]
      - [ 1., 0., 0., 0., 0., 0., 0., 0., 0., 0., 0., 0., 0., 0., 0., 0.,
          0., 0., 0., 0., 1., 3., 3., 16., 17., 17., 18., 17., 18., 18.,
          17., 14., 10., 8., 7., 6., 5., 4., 3., 2., 1., 0., 1., 1., 11.,
          10., 10., 9., 8., 7., 7., 6., 5., 4., 4., 4., 3., 4., 6., 20.,
          19., 19., 19., 18., 17., 16., 15., 14., 13., 12., 12., 11.,
          11., 10., 11., 10., 10., 10., 9., 0. ]
      - [ 2., 1., 1., 1., 1., 1., 1., 1., 1., 1., 1., 1., 1., 1., 1., 1.,
          1., 1., 1., 2., 4., 4., 4., 4., 19., 19., 19., 19., 19., 19.,
          19., 15., 13., 10., 8., 8., 7., 6., 5., 4., 20., 1., 0., 0.,
          0., 11., 11., 10., 9., 9., 8., 7., 6., 6., 5., 5., 4., 4., 4.,
          4., 0., 18., 19., 19., 19., 18., 17., 16., 15., 13., 13., 12.,
          12., 12., 11., 11., 10., 10., 10., 10. ]
      - [ 20., 0., 0., 0., 0., 0., 0., 0., 0., 0., 0., 0., 0., 0., 0.,
          0., 0., 0., 0., 20., 0., 2., 2., 2., 2., 17., 16., 17., 17.,
          17., 15., 12., 8., 7., 6., 5., 4., 3., 2., 0., 1., 1., 1., 12.,
          12., 11., 9., 9., 8., 8., 7., 7., 6., 5., 6., 5., 5., 5., 20.,
          20., 18., 18., 18., 17., 16., 15., 14., 13., 12., 11., 11.,
          11., 11., 10., 10., 10., 9., 9., 0., 0. ]
      - [ 20., 20., 20., 20., 1., 1., 1., 1., 1., 1., 1., 1., 1., 1., 1.,
          1., 1., 1., 1., 1., 0., 0., 0., 0., 3., 3., 16., 17., 17., 17.,
          17., 17., 15., 12., 10., 8., 7., 6., 5., 4., 20., 4., 4., 4.,
          14., 13., 12., 12., 10., 10., 9., 9., 8., 8., 7., 7., 6., 7.,
          20., 20., 0., 19., 19., 19., 19., 18., 17., 16., 15., 14., 14.,
          13., 13., 12., 12., 12., 11., 11., 0., 0. ]
      - [ 2., 1., 1., 1., 1., 1., 1., 1., 1., 0., 0., 0., 0., 0., 1., 1.,
          1., 1., 1., 20., 2., 3., 3., 4., 17., 18., 18., 18., 18., 18.,
          18., 17., 11., 9., 7., 6., 6., 4., 3., 0., 9., 1., 0., 1., 3.,
          11., 10., 9., 9., 8., 7., 6., 6., 5., 5., 4., 4., 4., 5., 20.,
          13., 18., 18., 18., 17., 16., 16., 14., 13., 13., 12., 12.,
          11., 11., 11., 11., 11., 11., 10., 0. ]
      - [ 20., 1., 1., 1., 0., 1., 1., 1., 0., 0., 0., 0., 0., 0., 0.,
          0., 0., 1., 1., 20., 0., 3., 3., 3., 17., 17., 17., 17., 17.,
          17., 17., 13., 10., 9., 7., 6., 5., 4., 3., 0., 4., 1., 1., 1.,
          7., 10., 9., 9., 8., 7., 7., 6., 6., 5., 4., 4., 4., 4., 20.,
          20., 16., 18., 18., 18., 17., 16., 15., 14., 13., 13., 12.,
          11., 11., 11., 10., 10., 10., 10., 0., 0. ]
      - [ 20., 0., 0., 0., 0., 0., 0., 0., 0., 0., 0., 0., 0., 0., 0.,
          0., 0., 0., 0., 20., 0., 2., 16., 2., 16., 17., 17., 16., 17.,
          16., 15., 11., 8., 7., 6., 4., 3., 3., 2., 0., 1., 1., 1., 12.,
          11., 10., 9., 9., 8., 7., 6., 6., 5., 5., 5., 4., 2., 5., 20.,
          20., 18., 18., 18., 17., 15., 14., 14., 13., 12., 11., 11.,
          11., 10., 10., 10., 10., 9., 8., 0., 0. ]
      - [ 2., 2., 2., 2., 2., 2., 2., 2., 2., 2., 2., 2., 2., 2., 2., 2.,
          2., 2., 20., 20., 4., 4., 4., 4., 18., 18., 18., 18., 18., 18.,
          12., 10., 9., 7., 6., 5., 4., 3., 0., 0., 20., 20., 0., 0., 0.,
          9., 10., 9., 8., 7., 7., 6., 6., 5., 4., 4., 4., 4., 4., 20.,
          0., 0., 17., 17., 16., 15., 14., 13., 12., 12., 11., 10., 10.,
          9., 9., 9., 9., 9., 9., 0. ]
      - [ 20., 0., 0., 0., 0., 0., 0., 0., 0., 0., 0., 0., 0., 0., 0.,
          1., 0., 0., 0., 20., 0., 3., 3., 3., 3., 17., 17., 17., 17.,
          17., 14., 10., 9., 8., 19., 17., 4., 3., 2., 0., 1., 1., 1.,
          1., 11., 10., 10., 9., 8., 7., 7., 6., 6., 6., 5., 5., 5., 5.,
          20., 14., 18., 18., 18., 17., 16., 15., 14., 13., 13., 12.,
          11., 10., 10., 10., 10., 9., 9., 15., 0., 14. ]
      - [ 20., 5., 4., 4., 4., 4., 4., 4., 4., 4., 4., 4., 4., 4., 4.,
          4., 4., 4., 5., 20., 0., 5., 6., 6., 6., 19., 19., 19., 19.,
          19., 15., 16., 11., 17., 8., 7., 6., 5., 5., 0., 20., 20., 20.,
          20., 2., 1., 2., 11., 11., 10., 8., 8., 7., 6., 6., 5., 5., 5.,
          5., 5., 0., 0., 0., 0., 17., 18., 16., 15., 14., 13., 12., 12.,
          11., 10., 10., 10., 11., 13., 9., 9. ]
      - [ 11., 10., 2., 1., 0., 0., 0., 0., 0., 0., 0., 0., 0., 0., 0.,
          0., 0., 1., 9., 20., 12., 13., 14., 15., 15., 16., 16., 16.,
          16., 16., 16., 16., 16., 16., 16., 15., 15., 15., 13., 0., 4.,
          3., 2., 2., 2., 2., 4., 5., 3., 2., 1., 0., 0., 1., 2., 3., 5.,
          20., 20., 20., 16., 17., 17., 17., 17., 17., 15., 15., 17.,
          18., 18., 18., 18., 18., 17., 17., 14., 0., 0., 0. ]
      - [ 20., 20., 20., 20., 4., 3., 2., 2., 2., 2., 2., 2., 2., 2., 2.,
          2., 3., 3., 5., 20., 0., 0., 0., 0., 16., 17., 17., 17., 18.,
          18., 18., 18., 18., 18., 18., 17., 17., 17., 15., 0., 20., 20.,
          6., 5., 4., 4., 4., 5., 5., 5., 5., 4., 4., 4., 4., 4., 4., 5.,
          8., 20., 0., 0., 15., 17., 17., 18., 18., 17., 15., 15., 15.,
          17., 18., 18., 18., 18., 17., 17., 14., 0. ]
      - [ 20., 4., 3., 3., 3., 2., 2., 2., 1., 1., 1., 1., 2., 2., 3.,
          4., 5., 5., 20., 20., 0., 9., 17., 17., 18., 18., 18., 18.,
          18., 18., 18., 18., 17., 17., 17., 16., 13., 13., 0., 0., 20.,
          8., 5., 2., 1., 1., 1., 1., 1., 1., 2., 2., 5., 14., 12., 2.,
          2., 2., 4., 20., 0., 11., 13., 14., 15., 17., 17., 17., 17.,
          17., 17., 17., 17., 17., 15., 15., 15., 14., 11., 0. ]
      - [ 15., 5., 3., 2., 2., 1., 1., 1., 1., 1., 1., 1., 1., 1., 1.,
          2., 2., 2., 3., 13., 15., 16., 17., 17., 17., 18., 18., 18.,
          18., 19., 19., 19., 18., 18., 18., 18., 17., 16., 16., 13.,
          20., 5., 3., 2., 2., 1., 2., 2., 3., 4., 3., 1., 1., 1., 1.,
          0., 1., 2., 5., 9., 0., 14., 17., 18., 18., 18., 18., 17., 16.,
          15., 17., 18., 18., 19., 18., 18., 18., 16., 15., 11. ]
      - [ 20., 20., 5., 5., 3., 2., 2., 2., 1., 1., 1., 1., 2., 2., 2.,
          2., 3., 3., 5., 20., 0., 0., 16., 16., 17., 18., 18., 18., 19.,
          19., 19., 19., 18., 18., 18., 17., 17., 17., 15., 0., 20., 8.,
          5., 4., 4., 2., 2., 4., 4., 5., 5., 4., 4., 2., 2., 2., 2., 4.,
          5., 8., 0., 11., 15., 17., 17., 18., 18., 17., 17., 15., 15.,
          15., 18., 18., 18., 18., 17., 17., 14., 11. ]
      - [ 13., 5., 3., 2., 2., 2., 1., 1., 1., 1., 1., 1., 1., 1., 1.,
          2., 2., 2., 4., 13., 15., 16., 17., 18., 18., 19., 19., 19.,
          19., 19., 19., 19., 19., 19., 18., 18., 18., 17., 16., 15.,
          20., 6., 3., 2., 2., 1., 2., 2., 3., 4., 4., 2., 1., 0., 0.,
          0., 1., 2., 3., 5., 0., 14., 17., 17., 18., 18., 18., 17., 17.,
          16., 16., 18., 18., 19., 19., 19., 18., 17., 16., 13. ]
      - [ 20., 12., 3., 2., 1., 1., 0., 1., 0., 0., 0., 0., 0., 1., 1.,
          1., 2., 4., 11., 20., 0., 13., 14., 15., 16., 16., 17., 17.,
          17., 17., 17., 17., 17., 17., 17., 16., 16., 15., 14., 0., 6.,
          4., 3., 2., 2., 2., 3., 3., 4., 4., 2., 2., 1., 1., 2., 3., 4.,
          6., 20., 20., 12., 15., 16., 16., 17., 17., 16., 15., 14., 16.,
          17., 18., 18., 18., 18., 17., 16., 14., 0., 0. ]
      - [ 20., 11., 3., 2., 1., 1., 1., 1., 0., 0., 0., 0., 0., 1., 1.,
          1., 2., 2., 3., 20., 0., 16., 16., 17., 18., 18., 18., 18.,
          18., 18., 18., 18., 18., 18., 18., 17., 17., 16., 15., 0., 8.,
          4., 3., 2., 2., 2., 2., 3., 4., 4., 3., 1., 1., 1., 1., 1., 1.,
          3., 4., 20., 12., 15., 17., 18., 18., 18., 17., 17., 15., 16.,
          17., 18., 18., 18., 18., 18., 17., 16., 14., 0. ]
      - [ 20., 10., 2., 1., 0., 0., 0., 0., 0., 0., 0., 0., 0., 0., 0.,
          0., 0., 1., 3., 11., 0., 14., 15., 16., 16., 16., 16., 17.,
          17., 17., 17., 17., 17., 16., 16., 16., 15., 14., 14., 12., 4.,
          3., 2., 2., 2., 2., 3., 5., 4., 2., 1., 1., 1., 1., 1., 2., 3.,
          7., 20., 20., 16., 17., 17., 18., 18., 16., 16., 15., 16., 18.,
          18., 19., 19., 18., 18., 16., 15., 12., 0., 0. ]
      - [ 11., 11., 3., 1., 1., 0., 0., 0., 0., 0., 0., 0., 0., 0., 0.,
          0., 0., 2., 10., 20., 11., 14., 14., 16., 16., 16., 16., 16.,
          17., 16., 16., 16., 16., 16., 16., 16., 15., 14., 14., 0., 5.,
          3., 3., 2., 2., 2., 4., 4., 3., 2., 2., 0., 1., 1., 1., 3., 3.,
          8., 20., 20., 16., 16., 17., 17., 17., 17., 16., 14., 15., 17.,
          18., 18., 18., 18., 18., 16., 15., 8., 0., 0. ]
      - [ 20., 3., 1., 0., 0., 0., 0., 0., 0., 0., 0., 0., 0., 0., 0.,
          0., 1., 1., 9., 10., 0., 13., 14., 15., 15., 15., 16., 16.,
          16., 16., 16., 16., 16., 16., 16., 15., 15., 14., 14., 12., 3.,
          2., 2., 1., 2., 3., 4., 4., 2., 1., 1., 1., 1., 1., 2., 3., 6.,
          20., 20., 20., 15., 17., 17., 17., 17., 16., 15., 15., 17.,
          18., 19., 19., 19., 18., 18., 16., 14., 0., 0., 0. ]
      - [ 20., 10., 3., 2., 1., 1., 0., 0., 0., 0., 0., 0., 0., 0., 1.,
          1., 2., 4., 10., 13., 0., 10., 14., 14., 15., 16., 16., 16.,
          16., 16., 16., 16., 17., 16., 16., 15., 15., 15., 13., 13., 6.,
          4., 3., 2., 2., 2., 3., 4., 4., 3., 1., 2., 2., 2., 2., 4., 5.,
          12., 20., 20., 13., 15., 16., 16., 17., 17., 16., 15., 14.,
          16., 18., 18., 18., 19., 17., 17., 14., 12., 0., 0. ]
      - [ 20., 11., 3., 2., 1., 1., 0., 0., 0., 0., 0., 0., 0., 1., 0.,
          1., 2., 2., 10., 20., 0., 11., 14., 15., 15., 15., 16., 19.,
          16., 16., 16., 19., 16., 16., 16., 15., 15., 14., 13., 0., 6.,
          4., 3., 2., 2., 3., 3., 5., 4., 3., 2., 1., 2., 2., 2., 3., 6.,
          20., 20., 7., 14., 15., 17., 17., 17., 17., 16., 14., 15., 17.,
          18., 18., 18., 18., 17., 16., 14., 0., 0., 11. ]
      - [ 20., 11., 3., 1., 1., 0., 0., 0., 0., 0., 0., 0., 0., 0., 0.,
          0., 1., 2., 9., 20., 0., 12., 13., 15., 15., 15., 15., 16.,
          16., 16., 15., 16., 15., 16., 15., 15., 14., 14., 13., 0., 5.,
          3., 3., 2., 2., 3., 4., 5., 3., 2., 2., 1., 1., 2., 3., 3., 7.,
          20., 20., 20., 15., 16., 17., 17., 17., 16., 15., 15., 17.,
          18., 18., 18., 18., 18., 17., 15., 13., 0., 0., 0. ]
      - [ 20., 20., 5., 5., 4., 3., 2., 2., 2., 2., 2., 2., 2., 2., 2.,
          3., 4., 4., 13., 20., 0., 0., 16., 16., 17., 18., 18., 18.,
          18., 19., 19., 19., 18., 18., 18., 17., 16., 16., 14., 0., 20.,
          20., 6., 5., 4., 2., 2., 4., 4., 5., 5., 4., 2., 2., 2., 2.,
          2., 4., 5., 9., 0., 0., 14., 15., 17., 17., 17., 17., 15., 15.,
          15., 17., 17., 18., 18., 17., 17., 15., 14., 11. ]
      - [ 20., 11., 3., 2., 1., 0., 0., 0., 0., 0., 0., 0., 0., 0., 0.,
          1., 1., 2., 10., 20., 0., 13., 13., 15., 15., 16., 16., 16.,
          16., 16., 16., 16., 16., 16., 16., 16., 15., 14., 14., 0., 5.,
          4., 3., 2., 2., 2., 4., 5., 4., 3., 2., 1., 2., 1., 3., 3., 5.,
          20., 20., 20., 14., 16., 17., 17., 17., 17., 16., 15., 15.,
          17., 18., 18., 18., 18., 18., 16., 15., 0., 0., 0. ]
      - [ 20., 5., 3., 2., 2., 1., 1., 1., 1., 1., 0., 1., 1., 1., 1.,
          1., 2., 3., 4., 12., 0., 16., 16., 17., 17., 18., 18., 18.,
          18., 18., 18., 18., 18., 18., 17., 17., 17., 16., 16., 14.,
          10., 5., 3., 2., 2., 1., 2., 2., 3., 4., 2., 1., 1., 1., 1.,
          1., 1., 3., 5., 20., 10., 15., 16., 17., 18., 18., 17., 17.,
          16., 15., 17., 18., 19., 19., 19., 18., 18., 16., 13., 0. ]
      - [ 20., 5., 4., 4., 3., 2., 2., 2., 2., 2., 2., 2., 3., 3., 3.,
          4., 6., 6., 20., 20., 0., 8., 17., 17., 17., 18., 18., 18.,
          18., 18., 18., 18., 17., 17., 16., 15., 13., 13., 0., 0., 20.,
          20., 5., 4., 2., 1., 1., 1., 1., 2., 2., 2., 4., 12., 12., 2.,
          2., 2., 5., 20., 0., 0., 11., 14., 15., 15., 17., 17., 17.,
          17., 17., 17., 17., 17., 15., 15., 14., 13., 11., 0. ]
      - [ 20., 12., 3., 3., 2., 2., 1., 1., 1., 1., 1., 1., 1., 1., 2.,
          2., 2., 3., 5., 20., 0., 15., 16., 17., 18., 18., 18., 18.,
          18., 18., 18., 18., 18., 18., 18., 17., 17., 16., 15., 0., 20.,
          6., 4., 2., 2., 2., 2., 2., 3., 4., 3., 2., 1., 1., 1., 1., 2.,
          3., 4., 20., 0., 13., 16., 17., 17., 18., 17., 17., 16., 15.,
          16., 17., 18., 18., 18., 18., 17., 16., 14., 0. ]
      - [ 13., 10., 2., 2., 1., 1., 0., 0., 0., 0., 0., 0., 0., 0., 0.,
          1., 1., 2., 4., 20., 13., 13., 15., 16., 17., 17., 17., 17.,
          17., 17., 17., 17., 17., 17., 17., 16., 16., 15., 14., 0., 6.,
          4., 2., 2., 2., 2., 3., 4., 4., 3., 1., 1., 1., 0., 2., 2., 3.,
          4., 20., 20., 14., 16., 17., 17., 18., 17., 17., 15., 14., 16.,
          18., 18., 18., 18., 18., 17., 16., 14., 0., 0. ]
      - [ 6., 5., 3., 3., 3., 2., 2., 2., 2., 2., 2., 2., 2., 2., 3., 4.,
          4., 5., 9., 20., 7., 9., 16., 17., 17., 18., 18., 18., 18.,
          18., 18., 18., 17., 17., 17., 17., 15., 14., 12., 0., 20., 20.,
          5., 2., 2., 1., 0., 0., 1., 1., 2., 3., 4., 13., 13., 2., 2.,
          3., 5., 20., 0., 0., 13., 14., 16., 17., 17., 17., 17., 18.,
          18., 18., 18., 17., 17., 16., 15., 15., 11., 0. ]
      - [ 20., 6., 4., 4., 3., 3., 3., 2., 3., 2., 3., 3., 3., 3., 4.,
          4., 5., 6., 20., 20., 0., 10., 16., 17., 17., 18., 18., 18.,
          19., 18., 18., 18., 18., 18., 18., 17., 16., 14., 0., 0., 20.,
          20., 7., 4., 2., 2., 1., 1., 1., 1., 1., 2., 4., 7., 13., 2.,
          2., 3., 5., 8., 0., 0., 9., 13., 15., 16., 17., 17., 17., 17.,
          17., 17., 17., 17., 17., 16., 16., 15., 14., 8. ]
      - [ 5., 4., 3., 2., 2., 2., 1., 1., 1., 1., 1., 1., 1., 2., 2., 3.,
          4., 5., 7., 20., 7., 15., 16., 17., 17., 18., 18., 18., 18.,
          18., 18., 18., 18., 18., 17., 17., 16., 15., 13., 0., 20., 6.,
          3., 2., 1., 0., 0., 0., 1., 1., 2., 3., 6., 13., 3., 1., 2.,
          3., 5., 20., 0., 12., 14., 15., 16., 17., 17., 18., 18., 18.,
          18., 18., 18., 18., 17., 17., 16., 15., 13., 0. ]
      - [ 20., 4., 3., 2., 2., 2., 1., 1., 1., 1., 1., 1., 2., 2., 2.,
          2., 4., 5., 7., 20., 0., 14., 16., 17., 17., 17., 17., 17.,
          18., 18., 17., 17., 17., 17., 16., 16., 15., 13., 11., 0., 20.,
          6., 3., 2., 1., 1., 1., 1., 1., 2., 2., 4., 13., 13., 1., 2.,
          2., 3., 8., 20., 0., 11., 15., 15., 16., 17., 17., 18., 18.,
          18., 18., 18., 17., 17., 16., 16., 15., 13., 9., 0. ]
      - [ 20., 4., 3., 2., 2., 1., 1., 1., 0., 0., 0., 1., 1., 1., 2.,
          2., 3., 5., 8., 20., 0., 8., 16., 16., 17., 17., 17., 17., 17.,
          17., 17., 17., 16., 16., 16., 16., 15., 14., 11., 0., 8., 5.,
          3., 2., 1., 1., 1., 1., 1., 2., 3., 4., 12., 4., 2., 2., 2.,
          4., 20., 20., 10., 13., 15., 16., 16., 17., 17., 17., 18., 18.,
          18., 18., 17., 17., 17., 16., 15., 11., 0., 0. ]
      - [ 20., 3., 2., 2., 1., 1., 0., 0., 0., 0., 0., 0., 0., 0., 1.,
          2., 2., 3., 5., 20., 0., 15., 15., 16., 16., 16., 17., 17.,
          17., 17., 17., 17., 17., 17., 16., 15., 15., 13., 11., 0., 6.,
          4., 2., 1., 1., 1., 1., 1., 2., 2., 3., 6., 12., 2., 1., 1.,
          3., 6., 20., 20., 13., 14., 16., 17., 17., 18., 18., 17., 18.,
          18., 17., 18., 17., 17., 16., 16., 14., 13., 0., 0. ]
      - [ 20., 2., 1., 0., 0., 0., 0., 0., 0., 0., 0., 0., 0., 0., 0.,
          1., 2., 3., 8., 20., 0., 6., 14., 14., 15., 15., 16., 16., 16.,
          16., 16., 16., 15., 15., 15., 14., 13., 12., 9., 0., 3., 2.,
          1., 1., 1., 1., 1., 2., 3., 4., 9., 13., 2., 2., 2., 4., 6.,
          20., 20., 20., 14., 15., 16., 17., 17., 17., 17., 17., 18.,
          18., 17., 17., 17., 16., 15., 14., 11., 0., 0., 0. ]
      - [ 4., 4., 3., 2., 1., 1., 1., 1., 1., 1., 1., 1., 1., 1., 1., 2.,
          3., 4., 6., 20., 6., 15., 16., 17., 17., 17., 17., 17., 18.,
          18., 17., 17., 17., 17., 16., 16., 15., 13., 13., 0., 20., 4.,
          3., 2., 0., 0., 0., 1., 1., 2., 2., 4., 13., 13., 1., 1., 2.,
          3., 8., 20., 0., 14., 15., 16., 17., 17., 18., 18., 18., 18.,
          18., 17., 18., 18., 16., 16., 15., 13., 9., 0. ]
      - [ 4., 2., 2., 0., 0., 0., 0., 0., 0., 0., 0., 0., 0., 0., 0., 1.,
          1., 3., 5., 20., 6., 14., 15., 16., 16., 16., 17., 17., 17.,
          17., 17., 16., 16., 16., 15., 15., 14., 13., 11., 0., 3., 3.,
          1., 1., 0., 0., 0., 1., 2., 3., 5., 13., 13., 1., 1., 2., 3.,
          6., 20., 20., 14., 16., 16., 17., 17., 18., 18., 18., 18., 18.,
          18., 18., 17., 17., 16., 15., 13., 10., 0., 0. ]
      - [ 20., 6., 5., 4., 4., 3., 3., 3., 3., 3., 3., 3., 3., 4., 4.,
          5., 6., 7., 10., 20., 0., 9., 17., 18., 18., 19., 19., 19.,
          19., 19., 19., 19., 19., 19., 18., 18., 17., 15., 12., 0., 20.,
          20., 20., 5., 3., 2., 1., 1., 1., 1., 2., 2., 3., 5., 13., 5.,
          2., 2., 3., 5., 0., 0., 0., 12., 14., 15., 16., 17., 17., 17.,
          18., 18., 18., 17., 17., 17., 16., 16., 15., 13. ]
      - [ 5., 4., 3., 1., 1., 1., 1., 1., 1., 1., 0., 1., 1., 1., 1., 2.,
          3., 3., 6., 20., 6., 15., 15., 16., 17., 17., 17., 17., 18.,
          17., 17., 17., 17., 17., 16., 15., 15., 13., 11., 0., 10., 3.,
          3., 2., 1., 0., 0., 1., 1., 2., 3., 5., 13., 12., 1., 1., 3.,
          4., 8., 20., 10., 14., 15., 17., 17., 17., 18., 18., 18., 18.,
          18., 18., 17., 17., 16., 16., 14., 13., 8., 0. ]
      - [ 6., 3., 3., 2., 2., 1., 1., 1., 0., 0., 1., 1., 1., 1., 2., 2.,
          3., 4., 5., 9., 8., 16., 17., 17., 18., 18., 18., 18., 18.,
          18., 18., 18., 18., 17., 17., 17., 16., 15., 13., 9., 8., 5.,
          3., 1., 1., 1., 0., 0., 0., 1., 2., 3., 5., 12., 2., 1., 1.,
          2., 4., 20., 9., 13., 15., 16., 17., 18., 18., 18., 18., 19.,
          18., 18., 18., 18., 17., 17., 16., 15., 12., 0. ]
      - [ 20., 2., 1., 0., 0., 0., 0., 0., 0., 0., 0., 0., 0., 0., 0.,
          0., 1., 3., 4., 20., 0., 13., 14., 15., 15., 15., 16., 16.,
          16., 16., 16., 16., 15., 15., 15., 14., 13., 12., 9., 0., 3.,
          2., 1., 1., 1., 1., 1., 2., 2., 4., 7., 13., 1., 1., 2., 3.,
          6., 20., 20., 20., 15., 16., 16., 17., 18., 18., 18., 18., 18.,
          18., 17., 17., 17., 16., 15., 14., 11., 0., 0., 0. ]
      - [ 2., 1., 0., 0., 0., 0., 0., 0., 0., 0., 0., 0., 0., 0., 0., 0.,
          2., 2., 4., 8., 6., 13., 15., 15., 16., 16., 17., 17., 17.,
          17., 17., 17., 17., 16., 16., 16., 15., 14., 12., 8., 2., 1.,
          0., 0., 0., 0., 0., 1., 2., 3., 4., 13., 13., 1., 2., 2., 4.,
          6., 20., 20., 15., 15., 17., 17., 18., 18., 18., 18., 19., 18.,
          18., 18., 18., 17., 17., 16., 15., 12., 0., 0. ]
      - [ 20., 4., 2., 1., 1., 1., 0., 0., 0., 0., 0., 0., 0., 1., 1.,
          1., 3., 4., 7., 20., 0., 13., 15., 16., 16., 16., 16., 17.,
          16., 17., 16., 17., 16., 16., 15., 15., 14., 12., 10., 0., 6.,
          3., 2., 2., 1., 1., 1., 1., 2., 3., 5., 13., 12., 1., 2., 2.,
          3., 7., 20., 20., 12., 15., 15., 16., 17., 17., 17., 18., 18.,
          18., 18., 17., 17., 16., 16., 15., 13., 11., 0., 0. ]
      - [ 4., 3., 2., 2., 1., 1., 1., 1., 0., 1., 1., 1., 1., 1., 2., 2.,
          2., 3., 5., 20., 8., 16., 17., 18., 18., 18., 18., 18., 19.,
          18., 18., 18., 18., 18., 17., 17., 16., 14., 13., 0., 8., 4.,
          2., 1., 0., 0., 0., 0., 0., 1., 2., 3., 6., 13., 2., 1., 1.,
          2., 3., 8., 8., 13., 16., 17., 17., 18., 18., 18., 18., 18.,
          18., 18., 18., 18., 17., 16., 16., 15., 13., 8. ]
      - [ 5., 3., 2., 1., 0., 0., 0., 0., 0., 0., 0., 0., 0., 0., 0., 1.,
          2., 3., 5., 20., 5., 13., 14., 15., 16., 16., 17., 16., 17.,
          17., 17., 16., 16., 16., 15., 15., 14., 13., 10., 0., 4., 3.,
          2., 1., 1., 0., 1., 1., 2., 3., 5., 13., 12., 1., 2., 3., 4.,
          6., 20., 20., 14., 15., 16., 17., 17., 18., 18., 18., 18., 18.,
          18., 17., 17., 17., 16., 15., 13., 10., 0., 0. ]
      - [ 4., 1., 0., 0., 0., 0., 0., 0., 0., 0., 0., 0., 0., 0., 0., 0.,
          1., 2., 3., 20., 12., 14., 14., 15., 15., 15., 16., 16., 16.,
          16., 16., 16., 15., 15., 14., 14., 13., 12., 9., 0., 2., 1.,
          1., 1., 0., 0., 1., 2., 2., 4., 7., 13., 0., 1., 1., 3., 6.,
          20., 20., 20., 15., 16., 17., 18., 18., 18., 18., 18., 18.,
          18., 17., 17., 17., 16., 15., 13., 11., 0., 0., 0. ]
   decision_functions:
      -
         sv_count: 27
         rho: -1.5789950055631683e+00
         alpha: [ 2.3259915757850802e-05, 1.2423605060193202e-04,
             9.8626599577592898e-05, 3.8210784810622145e-04,
             3.8360736855132282e-04, 2.2460298484827662e-04,
             1.9633707704025863e-04, 5.7462983476344941e-06,
             5.6742431709161298e-05, 3.5160434448722883e-04,
             1.3348451008032270e-05, 5.2634321516822685e-05,
             1.6151160749995231e-04, 6.6999827427739864e-05,
             5.3005278599914060e-04, 9.7115508079403695e-06,
             1.3304617694718190e-05, 3.4209819221675920e-05,
             1.2751271758513507e-04, -4.5972673558561593e-05,
             -1.1370146896414962e-03, -7.6130362151897351e-04,
             -1.3514949460738225e-04, -3.1277800670628077e-05,
             -4.0095167782574923e-04, -2.2250375965664218e-06,
             -3.4226162236927873e-04 ]
         index: [ 0, 1, 5, 6, 8, 10, 11, 12, 13, 22, 23, 24, 27, 30, 31,
             35, 39, 40, 41, 42, 44, 45, 46, 49, 50, 51, 52 ]
      -
         sv_count: 20
         rho: -3.6036045646242605e+00
         alpha: [ 1.4699802607448959e-04, 3.3393518052629288e-05,
             5.6879206711395712e-04, 5.6405731439471498e-04,
             6.7590444894220043e-04, 5.5958661348403737e-05,
             3.1664472281173439e-05, 1.5498418283809166e-04,
             1.2810735981266892e-04, 3.6052650811278883e-04,
             3.4059967592927046e-05, 2.6551677901744358e-04,
             3.0656861412969454e-04, -1.1375491283642323e-04,
             -7.7025626704572633e-04, -4.6830498793446249e-04,
             -8.3592250575032715e-04, -1.6788174412083213e-04,
             -5.4037050128487914e-04, -4.3004100073853248e-04 ]
         index: [ 2, 6, 10, 14, 15, 16, 19, 20, 25, 28, 33, 37, 39, 58,
             60, 61, 64, 67, 68, 72 ]
      -
         sv_count: 16
         rho: -3.3358926741375186e+00
         alpha: [ 7.5460360612881596e-05, 2.8239595718369402e-04,
             4.0586301327981866e-04, 7.9813737089601651e-05,
             3.7818379769961652e-04, 5.3775855823456193e-04,
             2.6344938623731179e-04, 3.3248025252334136e-05,
             3.1338702054716801e-04, 3.6169163382713865e-05,
             9.1474115035210008e-05, -2.8641401553512004e-04,
             -5.0919014436434434e-04, -8.1600818551771817e-04,
             -7.5067008279520119e-04, -1.3492070634252851e-04 ]
         index: [ 2, 6, 10, 11, 14, 15, 16, 20, 28, 31, 39, 78, 81, 83,
             86, 91 ]
      -
         sv_count: 22
         rho: -3.0510543816975426e+00
         alpha: [ 3.2549535526242698e-05, 3.9181730004556661e-04,
             3.3931272368739298e-04, 4.6249360023919165e-04,
             6.5512464083523653e-04, 1.3117929444189850e-04,
             6.1847766962818077e-05, 6.2818265654021060e-05,
             6.9815182589592461e-05, 8.1794475940017686e-05,
             4.7860117245462763e-06, 5.5034237870045969e-05,
             3.7504805506437678e-04, 1.7268612304022004e-04,
             6.6229375554776140e-05, 1.0048644256793689e-05,
             -1.1422545290508863e-04, -1.2058785556930733e-04,
             -7.3971201365534954e-04, -9.0084930167365275e-04,
             -9.6757071027062740e-06, -1.0875349025266311e-03 ]
         index: [ 3, 6, 10, 11, 15, 16, 17, 18, 19, 20, 21, 27, 28, 33,
             34, 39, 96, 99, 103, 106, 107, 113 ]
      -
         sv_count: 18
         rho: -2.4471655161537980e+00
         alpha: [ 6.7415044149475868e-05, 7.0027029340486194e-06,
             3.5758720071385194e-05, 6.3086806727740221e-04,
             2.5234130335582045e-04, 9.1073982147766230e-04,
             5.2623541203778248e-04, 2.4346323649272148e-04,
             1.8029077623301376e-04, 4.8272097061437705e-05,
             9.3124104285761353e-05, 2.3564612607993843e-04,
             -1.9023638374298502e-04, -6.7249001612277584e-04,
             -8.3109562669522524e-04, -4.2128184140991206e-05,
             -4.2718191822972322e-04, -1.0680252825247490e-03 ]
         index: [ 2, 6, 9, 10, 14, 15, 16, 19, 20, 26, 28, 39, 117, 124,
             126, 131, 135, 139 ]
      -
         sv_count: 14
         rho: -1.9210271643912105e+00
         alpha: [ 2.9568789149776330e-05, 1.9876838179168851e-05,
             1.0117120755708535e-04, 2.9842811151351093e-04,
             4.4459305284293843e-04, 2.0555561630984773e-04,
             2.4787810807152996e-04, 1.7996329712053827e-04,
             5.5443845127231622e-05, 1.8196978227641834e-04,
             -2.0551870260986343e-04, -3.1169551146021144e-04,
             -1.0772651182775473e-03, -1.6996931580042331e-04 ]
         index: [ 2, 3, 7, 10, 15, 16, 20, 25, 28, 39, 146, 148, 153,
             157 ]
      -
         sv_count: 24
         rho: 1.1641742839559582e-01
         alpha: [ 7.2336397311214534e-05, 1.6124172911997114e-04,
             5.2706746782063627e-04, 3.2169085971889448e-05,
             2.6885967409782832e-04, 4.8484403811483111e-05,
             8.0135893863387700e-06, 4.0601440294580119e-04,
             3.4528714701039279e-04, 2.7054575969153176e-04,
             9.6131824073277314e-05, 1.7003189949960759e-05,
             8.3090605439322963e-05, 2.1974529131376519e-04,
             2.1599826509297039e-05, 7.3612171712540263e-05,
             -6.7441386267342337e-04, -2.0773165156852825e-04,
             -7.6316501405734741e-04, -5.8362301613303575e-05,
             -1.6385006955983917e-04, -1.6771065402949216e-04,
             -4.7936883070073984e-04, -1.3660018196257794e-04 ]
         index: [ 2, 4, 10, 12, 15, 16, 22, 25, 29, 30, 31, 32, 33, 36,
             38, 39, 163, 168, 169, 170, 172, 176, 177, 178 ]
      -
         sv_count: 14
         rho: -2.3583971960036068e+00
         alpha: [ 3.9066917847311320e-05, 4.2592636979345912e-04,
             7.0705864404516249e-05, 4.6493005055868821e-04,
             1.7159218972462884e-04, 5.3828891018167526e-05,
             7.0905179753663343e-05, 2.6595446405652741e-04,
             2.0110289534728057e-04, -8.2318890234323679e-04,
             -1.0537586877438162e-04, -3.8597219767276510e-05,
             -4.3459291077336236e-04, -3.6225792084598480e-04 ]
         index: [ 6, 10, 14, 15, 16, 20, 25, 28, 39, 184, 188, 190, 191,
             196 ]
      -
         sv_count: 16
         rho: -2.3583704285586276e+00
         alpha: [ 8.0494389175326343e-05, 2.0294193181468655e-04,
             4.7729328053438993e-04, 1.4452481383470594e-04,
             4.6580008703982722e-04, 2.0994710231179046e-04,
             2.7482909964785240e-05, 6.6225109330358416e-05,
             9.8639964927342105e-05, 1.9209123740234258e-04,
             -8.4046000117503231e-05, -5.6015671256924300e-04,
             -1.3320581371462306e-04, -4.5232011099564196e-04,
             -4.4923205630615178e-04, -2.8648013263239187e-04 ]
         index: [ 2, 6, 10, 14, 15, 16, 19, 25, 28, 39, 200, 208, 210,
             212, 214, 216 ]
      -
         sv_count: 10
         rho: -5.6363132610454991e-01
         alpha: [ 3.8095521130824893e-06, 5.5179167689968034e-04,
             2.0123450570190093e-04, 8.6357697241393040e-05,
             -3.6282402088897194e-05, -2.0514212372361323e-04,
             -2.0668009223741683e-04, -1.3537110866260475e-04,
             -1.4375406448275616e-04, -1.1596364076076860e-04 ]
         index: [ 43, 47, 48, 52, 57, 62, 68, 69, 70, 72 ]
      -
         sv_count: 8
         rho: -1.3346314818860054e+00
         alpha: [ 7.3087166497519791e-05, 1.0055716107342124e-03,
             4.5545933901625047e-04, 1.6244811430410721e-04,
             -4.8947949300268731e-04, -1.2996586081857376e-04,
             -1.0390697072071116e-03, -3.8051169523716549e-05 ]
         index: [ 45, 47, 48, 52, 74, 77, 82, 83 ]
      -
         sv_count: 9
         rho: -7.9131808035898110e-01
         alpha: [ 2.8226895103830818e-04, 3.3159244292742132e-04,
             2.5614861231100766e-04, 3.5325439074652775e-04,
             8.9903827394808696e-05, -2.7908769267455510e-04,
